{
  "layers": [
    {
      "Neurons": [
        {
          "Bias": 1.5578300284402489,
          "Weights": [
            5.3426595411214759,
            4.3140622715012089,
            4.2976353486274084,
            7.40592124003641,
            -2.6531595098221006,
            1.0614856056377548,
            3.4219992843455049,
            -0.76453347627211954,
            -4.803964143602065,
            11.034068870431387,
            -5.9678948203836288,
            0.410337193669882,
            2.5461189846921646,
            -3.380026007536781,
            7.1439031998772418,
            -6.6251731454943954,
            -5.6471807997930954,
            1.8247091210647761,
            1.4180187028094111,
            1.4778359556804708,
            -5.7533345261524378,
            2.4413209206638298,
            10.537752618897931,
            -1.0817746907419805,
            8.8413936759444418,
            8.5417026049010829,
            3.6501682197195149,
            5.2830877632042128,
            -2.48167629626454,
            9.0137829973537542,
            5.9928319036469864,
            10.109589059992015
          ],
          "Output": 1.0,
          "activationType": 0,
          "Delta": 0.0,
          "WeightsUpdate": [
            0.0,
            0.0,
            0.0,
            0.0,
            0.0,
            0.0,
            0.0,
            0.0,
            0.0,
            0.0,
            0.0,
            0.0,
            0.0,
            0.0,
            0.0,
            0.0,
            0.0,
            0.0,
            0.0,
            0.0,
            0.0,
            0.0,
            0.0,
            0.0,
            0.0,
            0.0,
            0.0,
            0.0,
            0.0,
            0.0,
            0.0,
            0.0
          ],
          "BiasUpdate": 0.0,
          "PreviousWeightsUpdate": [
            -4.4679510702822262E-11,
            -6.04207537720785E-08,
            -6.0465407805653839E-08,
            -2.2583997059792088E-09,
            -2.9328043157231265E-12,
            4.4628461521201284E-11,
            -6.046834051528111E-08,
            2.21374567273913E-09,
            -6.0465432990538246E-08,
            -2.2137204875710677E-09,
            -2.9327089876198004E-12,
            5.82070077122568E-08,
            -2.2166785717806708E-09,
            -6.0420753384707382E-08,
            -9.8525053152866067E-17,
            2.2567794099714066E-09,
            -6.0465382331945239E-08,
            1.595498415325873E-12,
            2.2137202938239922E-09,
            -9.5173869645768036E-11,
            -6.0463812212066144E-08,
            5.0686815925160657E-20,
            4.1695755748496983E-11,
            -5.8251686835463718E-08,
            2.9223052218463606E-16,
            -5.82516365612653E-08,
            6.2720849424477185E-08,
            -6.0423686382713651E-08,
            4.46287505765533E-11,
            2.2584252783387815E-09,
            -4.4654033705185726E-11,
            2.9073271798984508E-12
          ],
          "PreviousBiasUpdate": 5.8163716267701619E-08
        },
        {
          "Bias": -3.5951456547289968,
          "Weights": [
            2.1692814165009793,
            -6.0126058793889676,
            5.2653538050954154,
            9.0323005664491873,
            7.4040432691273166,
            -0.056399417857485722,
            3.3996656776165142,
            4.004471867685667,
            5.7717208827072906,
            -5.2690057667914045,
            -4.2230961729353638,
            -0.74046770818026153,
            7.7204386484472636,
            -8.5132352654812351,
            1.3053802589970807,
            8.6558216827235128,
            1.6915054409138337,
            9.0621923432142282,
            9.1281282695763437,
            -2.8981645556278233,
            1.0551906342092727,
            7.4574731585809833,
            2.0929053564905162,
            4.4163145733353018,
            0.46355653569716571,
            11.588923121645772,
            -0.61255460328435352,
            4.454270056160869,
            6.008287999368723,
            2.7376885075727224,
            3.7702320772503328,
            0.70905390126040191
          ],
          "Output": 0.99999994128258118,
          "activationType": 0,
          "Delta": -3.2691949256280467E-09,
          "WeightsUpdate": [
            -4.0864936570350585E-11,
            4.0864936570350585E-11,
            8.172987314070117E-11,
            0.0,
            4.0864936570350585E-11,
            -4.0864936570350585E-11,
            0.0,
            0.0,
            0.0,
            4.0864936570350585E-11,
            4.0864936570350585E-11,
            -4.0864936570350585E-11,
            -8.172987314070117E-11,
            0.0,
            -4.0864936570350585E-11,
            4.0864936570350585E-11,
            4.0864936570350585E-11,
            0.0,
            0.0,
            4.0864936570350585E-11,
            -4.0864936570350585E-11,
            4.0864936570350585E-11,
            -4.0864936570350585E-11,
            4.0864936570350585E-11,
            0.0,
            -4.0864936570350585E-11,
            0.0,
            -4.0864936570350585E-11,
            -4.0864936570350585E-11,
            4.0864936570350585E-11,
            0.0,
            -8.172987314070117E-11
          ],
          "BiasUpdate": -4.0864936570350585E-11,
          "PreviousWeightsUpdate": [
            -2.8119031288429031E-08,
            -2.8037380203171765E-08,
            -2.7996534298616095E-08,
            2.8078257797913944E-08,
            4.0864725202535854E-11,
            -2.8119109985771568E-08,
            -2.807817323543304E-08,
            -2.8078251183896457E-08,
            -2.3926787011192549E-16,
            4.0864846236602485E-11,
            4.094336455940131E-11,
            -4.0871459730659045E-11,
            2.7996443179190333E-08,
            2.8078245049541703E-08,
            -2.8119031437363002E-08,
            2.8119130916399096E-08,
            -2.8037301564037878E-08,
            2.8078236776518815E-08,
            -2.8078251663103163E-08,
            -2.803738652113294E-08,
            -4.0794479650643121E-11,
            4.085871132277776E-11,
            -4.095629571992851E-11,
            2.8119201522414641E-08,
            5.6156411369137923E-08,
            -2.811911022544403E-08,
            7.8667321903811E-14,
            -4.0877805638430642E-11,
            -4.0773399929559351E-11,
            4.0864936553341877E-11,
            -1.3254565600052075E-20,
            -2.8159902925231817E-08
          ],
          "PreviousBiasUpdate": -2.8119180619862069E-08
        },
        {
          "Bias": 6.7943997709004327,
          "Weights": [
            4.5614966415358875,
            -0.61826839741810613,
            -8.3007545644357457,
            3.353193154595028,
            -10.305869789782744,
            -7.1835144688118016,
            1.8311142629453905,
            3.2576003453148923,
            -4.4461067850493317,
            -1.0492937242239924,
            -3.3467473577077036,
            7.7565212002154746,
            -7.1940083682688725,
            5.5924827763087936,
            6.2460583845624882,
            -2.9964648417645665,
            -0.26580295936069337,
            -1.795558389913003,
            5.8590459551245946,
            -9.0844740154374453,
            0.44653773803854152,
            -8.4448348676974732,
            8.7575006959218555,
            1.5690139716930489,
            -0.90698940360931724,
            4.3852139134345389,
            -6.0325021580706739,
            -3.6372193569635116,
            -4.4726235029701655,
            -8.0742882555359259,
            -3.7674076398089258,
            0.38115553828858767
          ],
          "Output": 1.0,
          "activationType": 0,
          "Delta": 0.0,
          "WeightsUpdate": [
            0.0,
            0.0,
            0.0,
            0.0,
            0.0,
            0.0,
            0.0,
            0.0,
            0.0,
            0.0,
            0.0,
            0.0,
            0.0,
            0.0,
            0.0,
            0.0,
            0.0,
            0.0,
            0.0,
            0.0,
            0.0,
            0.0,
            0.0,
            0.0,
            0.0,
            0.0,
            0.0,
            0.0,
            0.0,
            0.0,
            0.0,
            0.0
          ],
          "BiasUpdate": 0.0,
          "PreviousWeightsUpdate": [
            5.6202633695088695E-11,
            5.6540203698854036E-11,
            5.6548203833575117E-11,
            3.4813020653889414E-11,
            -1.4892010269460676E-18,
            5.544821165467507E-11,
            5.7286606351088031E-11,
            -3.4805021159012834E-11,
            1.2716871335808045E-12,
            9.00815385070198E-11,
            7.3840508219358273E-13,
            8.8997542111200584E-11,
            3.4066613766793282E-11,
            -5.4192529441652178E-11,
            5.610477472271814E-11,
            -1.4541169733401683E-10,
            5.7196760483825318E-11,
            -5.5410559996899319E-11,
            -3.4715166681022023E-11,
            5.5382374907122637E-11,
            1.8760391708576318E-12,
            6.7093132186247611E-18,
            -6.565555155047245E-13,
            -1.4352765166134221E-10,
            -1.1147112621787756E-10,
            -3.371303217214632E-11,
            -9.0532966474516982E-11,
            1.1738280182370979E-12,
            8.2025789609898743E-13,
            -9.0269236422305869E-11,
            8.0057561768649272E-15,
            5.6194618259433003E-11
          ],
          "PreviousBiasUpdate": 1.4358785724134942E-10
        },
        {
          "Bias": 4.4613778541790969,
          "Weights": [
            2.4517148089818317,
            -7.9356620255744055,
            -2.8359880486498765,
            -2.4425564407538296,
            -5.5244276830339594,
            -3.298531183590228,
            1.9387568372044948,
            -5.9493823648282556,
            -7.58985542747547,
            -4.4069676746118542,
            -1.8550792874653284,
            -4.4301455102837366,
            -1.9011201091196455,
            -4.6697844077911341,
            -8.7479128700730513,
            -3.24403606351357,
            -6.1371396293613953,
            -3.0047370451934126,
            2.0876206525701839,
            -2.6884059163433469,
            -5.0622531555289285,
            0.016299158541689542,
            1.850698011450036,
            -1.4944508011576521,
            -0.50074288972185921,
            -3.2596951530514433,
            4.4169122419840328,
            -4.61843202390792,
            -8.2462310196143171,
            -7.8985950101966766,
            -5.6058029393014346,
            -11.486164269393596
          ],
          "Output": 0.00014573957400649379,
          "activationType": 0,
          "Delta": 1.4189989118185207E-05,
          "WeightsUpdate": [
            1.773748639773151E-07,
            -1.773748639773151E-07,
            -3.5474972795463021E-07,
            0.0,
            -1.773748639773151E-07,
            1.773748639773151E-07,
            0.0,
            0.0,
            0.0,
            -1.773748639773151E-07,
            -1.773748639773151E-07,
            1.773748639773151E-07,
            3.5474972795463021E-07,
            0.0,
            1.773748639773151E-07,
            -1.773748639773151E-07,
            -1.773748639773151E-07,
            0.0,
            0.0,
            -1.773748639773151E-07,
            1.773748639773151E-07,
            -1.773748639773151E-07,
            1.773748639773151E-07,
            -1.773748639773151E-07,
            0.0,
            1.773748639773151E-07,
            0.0,
            1.773748639773151E-07,
            1.773748639773151E-07,
            -1.773748639773151E-07,
            0.0,
            3.5474972795463021E-07
          ],
          "BiasUpdate": 1.773748639773151E-07,
          "PreviousWeightsUpdate": [
            1.7737482909663309E-07,
            -1.77374872052113E-07,
            -3.5474973911609087E-07,
            -2.5296392848738368E-08,
            -1.7755418311958782E-07,
            1.7737482091939303E-07,
            -1.793177647228817E-10,
            2.5296391573933454E-08,
            -3.4982498371261524E-14,
            -2.026712204650324E-07,
            -1.7755417493945025E-07,
            1.5207846687304937E-07,
            3.2927402287027142E-07,
            1.4983025201117968E-14,
            1.7737487098698835E-07,
            -1.5207850864183009E-07,
            -1.7737482889079779E-07,
            9.4577369227172881E-16,
            2.5296356592061129E-08,
            -1.7773349525375865E-07,
            1.7737486502680552E-07,
            -1.7737486961036732E-07,
            1.7719551112709369E-07,
            -1.5207850068733283E-07,
            1.06577356716775E-15,
            2.0267128926144709E-07,
            2.5117045526578073E-08,
            1.771955611956385E-07,
            1.7737483462761194E-07,
            -1.5207843752302277E-07,
            -6.4740693295270992E-19,
            3.5492899968003885E-07
          ],
          "PreviousBiasUpdate": 1.5225782441122249E-07
        },
        {
          "Bias": -2.3003128646453628,
          "Weights": [
            -3.2708816754383068,
            3.0030461381615208,
            7.1567607260001811,
            -2.5272176513000333,
            4.8345571572859463,
            3.4274364476695278,
            4.1390510973112447,
            6.9801573767006735,
            -3.1670417898777692,
            2.1147329953051259,
            5.5051497525697117,
            3.9738057985336628,
            -2.815556101199864,
            6.737054859506495,
            -3.7565627255276293,
            6.4219749727720927,
            4.1882315802933725,
            2.1911658386877515,
            7.1673206688692828,
            5.2250550951907195,
            6.230974244179647,
            5.6274625032167949,
            -3.0201612831517757,
            -0.62010621308817848,
            8.8878260141397529,
            2.1535562868037865,
            4.0431150749302978,
            9.8498770367899464,
            -1.6259928348326245,
            -3.980502479352352,
            8.7865614423198828,
            -2.1796688344203643
          ],
          "Output": 2.9738800826325406E-20,
          "activationType": 0,
          "Delta": -8.83982691925583E-22,
          "WeightsUpdate": [
            -1.1049783649069788E-23,
            1.1049783649069788E-23,
            2.2099567298139576E-23,
            0.0,
            1.1049783649069788E-23,
            -1.1049783649069788E-23,
            0.0,
            0.0,
            0.0,
            1.1049783649069788E-23,
            1.1049783649069788E-23,
            -1.1049783649069788E-23,
            -2.2099567298139576E-23,
            0.0,
            -1.1049783649069788E-23,
            1.1049783649069788E-23,
            1.1049783649069788E-23,
            0.0,
            0.0,
            1.1049783649069788E-23,
            -1.1049783649069788E-23,
            1.1049783649069788E-23,
            -1.1049783649069788E-23,
            1.1049783649069788E-23,
            0.0,
            -1.1049783649069788E-23,
            0.0,
            -1.1049783649069788E-23,
            -1.1049783649069788E-23,
            1.1049783649069788E-23,
            0.0,
            -2.2099567298139576E-23
          ],
          "BiasUpdate": -1.1049783649069788E-23,
          "PreviousWeightsUpdate": [
            -3.152905011571153E-08,
            -3.1261337321795224E-08,
            -3.0993246382552773E-08,
            3.0993246427775022E-08,
            -1.4703459345463117E-13,
            -3.0993242391087052E-08,
            -3.0993229489607115E-08,
            -3.0993157112693153E-08,
            1.9789275716554982E-14,
            -2.6803716606273763E-10,
            1.6892431145602508E-14,
            2.6800166960723262E-10,
            3.0993213737260492E-08,
            3.0993230584221234E-08,
            -3.1261231113830563E-08,
            3.0993340058155013E-08,
            -3.1261250903443751E-08,
            3.0725244343967425E-08,
            -3.0993137323055486E-08,
            -3.1260995858200044E-08,
            1.6478047570463111E-14,
            -2.6800162404884436E-10,
            -8.6418567550128584E-14,
            3.0725370710093777E-08,
            6.1718474248229817E-08,
            -3.0993176901943613E-08,
            -3.6881029335543438E-14,
            2.6783879124518477E-10,
            -2.6805425766353026E-10,
            -1.9835052556169858E-14,
            1.6283274015969295E-13,
            -3.0993136183155564E-08
          ],
          "PreviousBiasUpdate": -3.0725118147581796E-08
        },
        {
          "Bias": 5.1959086132413725,
          "Weights": [
            4.1213993377991009,
            -2.5390764019405507,
            -2.5995172440323309,
            -10.081472410602009,
            7.1463596217241117,
            -5.1457225901815029,
            -4.514924491031298,
            -4.699575403484805,
            5.6319282863722933,
            5.6478995932131948,
            8.7759037253926451,
            4.2921991143756451,
            -3.2198486769948809,
            -4.33337488225669,
            1.0424961492930853,
            -4.2590120674586878,
            -3.8686521219284682,
            -5.8269416047803375,
            5.6769991598706806,
            -4.3466888454437829,
            6.9207389838016153,
            7.7848400705513123,
            -6.6364801072879294,
            -8.2065824616746852,
            -2.4322096796047896,
            1.7385311159926704,
            -8.6015682461361376,
            -12.499917469874559,
            4.2278599716044631,
            -5.1647993166691384,
            -7.8459520279418342,
            1.3907080665831184
          ],
          "Output": 0.97870069770424384,
          "activationType": 0,
          "Delta": 5.7311015734446048E-05,
          "WeightsUpdate": [
            7.163876966805756E-07,
            -7.163876966805756E-07,
            -1.4327753933611512E-06,
            0.0,
            -7.163876966805756E-07,
            7.163876966805756E-07,
            0.0,
            0.0,
            0.0,
            -7.163876966805756E-07,
            -7.163876966805756E-07,
            7.163876966805756E-07,
            1.4327753933611512E-06,
            0.0,
            7.163876966805756E-07,
            -7.163876966805756E-07,
            -7.163876966805756E-07,
            0.0,
            0.0,
            -7.163876966805756E-07,
            7.163876966805756E-07,
            -7.163876966805756E-07,
            7.163876966805756E-07,
            -7.163876966805756E-07,
            0.0,
            7.163876966805756E-07,
            0.0,
            7.163876966805756E-07,
            7.163876966805756E-07,
            -7.163876966805756E-07,
            0.0,
            1.4327753933611512E-06
          ],
          "BiasUpdate": 7.163876966805756E-07,
          "PreviousWeightsUpdate": [
            6.7293920770954465E-07,
            -7.3811196685119428E-07,
            -1.4327753957217211E-06,
            -3.1681513113506786E-17,
            -7.163877007584695E-07,
            7.1638779329627371E-07,
            3.3536678198757735E-13,
            -9.6158171174375707E-14,
            6.3432123270639034E-17,
            -7.3811196429976831E-07,
            -7.1638735988035186E-07,
            7.38112060723031E-07,
            1.4327751543665287E-06,
            1.0026546026059459E-13,
            6.946636692647821E-07,
            -7.163894621512709E-07,
            -7.381117252353329E-07,
            -2.1722598503693479E-08,
            -9.6308621283800042E-14,
            -7.3811225463537514E-07,
            7.1638980033401091E-07,
            -7.3811206325488217E-07,
            7.16387455136729E-07,
            -7.3811182033504269E-07,
            -2.1724702087284623E-08,
            7.1638760038252733E-07,
            3.3546839243577819E-13,
            7.3811215822724415E-07,
            6.9466376573635766E-07,
            -7.1638769657046142E-07,
            -9.4974580796470252E-14,
            1.4327757302991645E-06
          ],
          "PreviousBiasUpdate": 7.3810986460152094E-07
        },
        {
          "Bias": -4.5942489429784832,
          "Weights": [
            -3.6763379247870955,
            6.2510381964240462,
            -4.9306622679582839,
            2.967545598630005,
            4.7468757417571084,
            -3.869589173746681,
            -5.5177821435094341,
            3.0204010446182452,
            -5.9709067074490374,
            -1.4485764719308711,
            -0.87979796926689646,
            -2.85321809901623,
            1.6959645902856495,
            -7.0427946581394689,
            -4.5093197408869505,
            -14.365105771096514,
            0.77970963111983793,
            -3.2402839030382284,
            0.43096800701666216,
            -11.845829538038492,
            -1.8078980910621749,
            4.2267601805934945,
            0.77062013758252945,
            -8.1657270712903234,
            -2.1799940562333484,
            2.0989491439007986,
            -7.2521384340644728,
            7.6887233056235367,
            -6.6648160191894261,
            -13.344156871553704,
            -1.3036764260585123,
            3.9444638879741971
          ],
          "Output": 1.0,
          "activationType": 0,
          "Delta": 0.0,
          "WeightsUpdate": [
            0.0,
            0.0,
            0.0,
            0.0,
            0.0,
            0.0,
            0.0,
            0.0,
            0.0,
            0.0,
            0.0,
            0.0,
            0.0,
            0.0,
            0.0,
            0.0,
            0.0,
            0.0,
            0.0,
            0.0,
            0.0,
            0.0,
            0.0,
            0.0,
            0.0,
            0.0,
            0.0,
            0.0,
            0.0,
            0.0,
            0.0,
            0.0
          ],
          "BiasUpdate": 0.0,
          "PreviousWeightsUpdate": [
            5.7037737307663441E-11,
            4.7708277999955951E-09,
            4.7708277952685781E-09,
            -5.7041049904697138E-11,
            3.246412319135755E-15,
            5.7040967318419312E-11,
            4.7708344258992371E-09,
            5.7037632703353084E-11,
            4.7137900249600105E-09,
            -8.974749131512045E-21,
            3.2088636759456979E-15,
            -4.71378357143507E-09,
            -5.7044241460017579E-11,
            4.6567458643619556E-09,
            5.7040981097550329E-11,
            -5.7040927732586573E-11,
            4.7708277622676566E-09,
            -5.7040931591719456E-11,
            5.7044226674953809E-11,
            5.70409845282971E-11,
            4.7137868306488416E-09,
            -3.2281965814009291E-15,
            1.7236896160923449E-17,
            4.656742552761706E-09,
            -1.1408194838028899E-10,
            4.77083104366018E-09,
            -4.7137868685105162E-09,
            4.7137901083455188E-09,
            -3.3135220367612435E-15,
            -4.4675596854033005E-20,
            6.2873373685656528E-20,
            5.70442423670829E-11
          ],
          "PreviousBiasUpdate": -4.656742673607392E-09
        },
        {
          "Bias": 8.7774202656613554,
          "Weights": [
            6.3572962624923486,
            -8.7091621295371784,
            8.0351534184331381,
            -1.8734862902230449,
            -3.7698189714587409,
            -1.7360267008730852,
            0.69877130276656674,
            -3.2763447341431711,
            1.5013534064141825,
            -0.52484700011069452,
            -12.291629154768218,
            1.4947679453005285,
            -9.3851614036041653,
            -2.004686916647346,
            -6.0968272046379415,
            -10.206834581607318,
            -8.6286160203852251,
            -5.9078848924535921,
            -7.3418911424541191,
            0.32479166575638496,
            0.87596668109541731,
            -5.1057972390084574,
            0.63938643525953021,
            -7.5082984619400364,
            -4.7833836658199456,
            2.67566268306047,
            6.5949272000648493,
            4.9954330769761892,
            -1.9574329327758675,
            -2.0721672203529384,
            5.2475901567547671,
            1.4802376576961109
          ],
          "Output": 1.0,
          "activationType": 0,
          "Delta": 0.0,
          "WeightsUpdate": [
            0.0,
            0.0,
            0.0,
            0.0,
            0.0,
            0.0,
            0.0,
            0.0,
            0.0,
            0.0,
            0.0,
            0.0,
            0.0,
            0.0,
            0.0,
            0.0,
            0.0,
            0.0,
            0.0,
            0.0,
            0.0,
            0.0,
            0.0,
            0.0,
            0.0,
            0.0,
            0.0,
            0.0,
            0.0,
            0.0,
            0.0,
            0.0
          ],
          "BiasUpdate": 0.0,
          "PreviousWeightsUpdate": [
            -2.6406678206677333E-15,
            5.2247804601020511E-14,
            1.0451435012239807E-13,
            3.8072138851687614E-14,
            5.7878000820421812E-14,
            4.95731207734873E-14,
            5.223603503886459E-14,
            -3.8005877912980215E-14,
            1.698461250204241E-16,
            3.5089697932027727E-14,
            5.4585287457366377E-17,
            9.0291278962227815E-14,
            3.520504372050432E-14,
            -1.0730157782436668E-13,
            -5.2213673685157926E-14,
            1.6463776928881226E-13,
            -8.8299952978172619E-17,
            -2.0540344831689903E-13,
            -3.7905622039370709E-14,
            4.9431803576125662E-14,
            -2.0534726869078951E-13,
            5.2244497129971793E-14,
            5.2359877991993E-14,
            -9.0093928125688019E-14,
            -3.0801133968758218E-17,
            -3.8191319441776472E-14,
            -3.5038326515008921E-14,
            -4.942358707158145E-14,
            -5.2047030532882289E-14,
            -3.8194512127307441E-14,
            -2.8159811672419153E-15,
            4.9602175571390606E-14
          ],
          "PreviousBiasUpdate": 1.8821278340696034E-13
        },
        {
          "Bias": 0.26486802541196769,
          "Weights": [
            13.976667255551407,
            7.4334862349180471,
            -1.8689132342291948,
            -0.46980360065642068,
            8.6277919257172044,
            -3.9592422473889415,
            9.6507759966411868,
            1.3311146934131775,
            -0.91554126824471238,
            6.6959078517664619,
            9.6039579682843712,
            2.5547415327649055,
            5.6005890943619736,
            12.903405504202299,
            -0.6195550172851938,
            3.8127767896690861,
            2.2061690260479496,
            -5.0534511700669027,
            -4.5887115675182262,
            1.5904098541836102,
            4.6699989682998977,
            3.996854187512731,
            2.5011497173808754,
            -0.82968149485220744,
            2.0397681460930466,
            -5.7910338466651687,
            6.5982627765288235,
            5.5708896571769886,
            -2.5184823605848128,
            -2.1772084608108178,
            -3.7368999079116518,
            9.2951753934866019
          ],
          "Output": 0.99990086163407266,
          "activationType": 0,
          "Delta": -4.1426187963609156E-06,
          "WeightsUpdate": [
            -5.1782734954511445E-08,
            5.1782734954511445E-08,
            1.0356546990902289E-07,
            0.0,
            5.1782734954511445E-08,
            -5.1782734954511445E-08,
            0.0,
            0.0,
            0.0,
            5.1782734954511445E-08,
            5.1782734954511445E-08,
            -5.1782734954511445E-08,
            -1.0356546990902289E-07,
            0.0,
            -5.1782734954511445E-08,
            5.1782734954511445E-08,
            5.1782734954511445E-08,
            0.0,
            0.0,
            5.1782734954511445E-08,
            -5.1782734954511445E-08,
            5.1782734954511445E-08,
            -5.1782734954511445E-08,
            5.1782734954511445E-08,
            0.0,
            -5.1782734954511445E-08,
            0.0,
            -5.1782734954511445E-08,
            -5.1782734954511445E-08,
            5.1782734954511445E-08,
            0.0,
            -1.0356546990902289E-07
          ],
          "BiasUpdate": -5.1782734954511445E-08,
          "PreviousWeightsUpdate": [
            -5.2418275295748996E-08,
            5.1147193177606722E-08,
            1.0292992669833329E-07,
            6.349069488380841E-10,
            5.1782733525348176E-08,
            -5.24182767246143E-08,
            -6.3554176715017014E-10,
            -6.3490696353729007E-10,
            -1.1690961034080508E-17,
            5.17821015671819E-08,
            5.1782734949647041E-08,
            -5.1783369764236988E-08,
            -1.0293056295521681E-07,
            6.3554319232389538E-10,
            -5.2418273866824644E-08,
            5.2418848475485253E-08,
            5.1147194601678151E-08,
            6.3560055860091288E-10,
            -6.3490695359194826E-10,
            5.1147193184715995E-08,
            -5.178267474867929E-08,
            5.1782733525523075E-08,
            -5.1782736383138237E-08,
            5.2418910100320708E-08,
            1.271080682155812E-09,
            -5.2417641914883636E-08,
            6.33389510317253E-13,
            -5.17827335323791E-08,
            -5.1782733530515673E-08,
            5.1783368341951257E-08,
            1.2426587348403702E-19,
            -1.0420101167882633E-07
          ],
          "PreviousBiasUpdate": -5.2418967464667505E-08
        },
        {
          "Bias": -1.5023184812818227,
          "Weights": [
            -0.57844889806853061,
            -5.7220887882199,
            2.4073372539389677,
            -8.1349608768334445,
            1.2278892696337964,
            -2.0328106863436775,
            8.2215898956554376,
            -3.6580942606822675,
            -1.44614144434453,
            5.3107589380036764,
            -6.9665392417955037,
            -5.344311278395617,
            -1.0477753606373297,
            -1.1079920551986573,
            3.0322450565704009,
            3.7162602441827586,
            -2.664387184244402,
            -3.3051578410182127,
            -10.848155947578993,
            -4.26075127039534,
            -5.5320534066785756,
            1.1494030494182128,
            -4.987489001808302,
            -8.823529380423965,
            0.35277994152047421,
            2.5440607230452077,
            2.7783142831606331,
            -2.6133837140602068,
            -9.411006750524189,
            -0.71118442505080259,
            -6.8551472159632141,
            -7.7546860789076391
          ],
          "Output": 3.1119377329475724E-14,
          "activationType": 0,
          "Delta": 1.6535921943664241E-15,
          "WeightsUpdate": [
            2.06699024295803E-17,
            -2.06699024295803E-17,
            -4.13398048591606E-17,
            0.0,
            -2.06699024295803E-17,
            2.06699024295803E-17,
            0.0,
            0.0,
            0.0,
            -2.06699024295803E-17,
            -2.06699024295803E-17,
            2.06699024295803E-17,
            4.13398048591606E-17,
            0.0,
            2.06699024295803E-17,
            -2.06699024295803E-17,
            -2.06699024295803E-17,
            0.0,
            0.0,
            -2.06699024295803E-17,
            2.06699024295803E-17,
            -2.06699024295803E-17,
            2.06699024295803E-17,
            -2.06699024295803E-17,
            0.0,
            2.06699024295803E-17,
            0.0,
            2.06699024295803E-17,
            2.06699024295803E-17,
            -2.06699024295803E-17,
            0.0,
            4.13398048591606E-17
          ],
          "BiasUpdate": 2.06699024295803E-17,
          "PreviousWeightsUpdate": [
            3.4833597097621487E-08,
            3.483712624857149E-08,
            3.48371695714952E-08,
            8.5231345441467032E-08,
            3.6859109259928372E-10,
            3.4833628823302227E-08,
            3.5205661228033828E-08,
            -8.5231344216108937E-08,
            3.489779928630148E-12,
            1.2006493220896144E-07,
            3.6854131449368535E-10,
            1.2006147819651026E-07,
            8.5599885360635969E-08,
            -3.4830191489720046E-08,
            3.4833538324878836E-08,
            -1.5489850605384265E-07,
            3.4837077772356217E-08,
            -3.4833572642733585E-08,
            -8.5231344068988843E-08,
            3.5570722971284236E-08,
            3.4896556403857397E-12,
            5.7452545918632349E-14,
            3.6858975971283425E-10,
            -1.5489505721334834E-07,
            -6.9667152891751132E-08,
            -8.5227854347812057E-08,
            -1.196998742238222E-07,
            3.7197221889679053E-10,
            -4.3390623074776807E-14,
            -1.2006492579964924E-07,
            1.3050916360956808E-15,
            3.4465088977020641E-08
          ],
          "PreviousBiasUpdate": 1.545264190694986E-07
        }
      ],
      "<Neurons>k__BackingField": [
        {
          "Bias": 1.5578300284402489,
          "Weights": [
            5.3426595411214759,
            4.3140622715012089,
            4.2976353486274084,
            7.40592124003641,
            -2.6531595098221006,
            1.0614856056377548,
            3.4219992843455049,
            -0.76453347627211954,
            -4.803964143602065,
            11.034068870431387,
            -5.9678948203836288,
            0.410337193669882,
            2.5461189846921646,
            -3.380026007536781,
            7.1439031998772418,
            -6.6251731454943954,
            -5.6471807997930954,
            1.8247091210647761,
            1.4180187028094111,
            1.4778359556804708,
            -5.7533345261524378,
            2.4413209206638298,
            10.537752618897931,
            -1.0817746907419805,
            8.8413936759444418,
            8.5417026049010829,
            3.6501682197195149,
            5.2830877632042128,
            -2.48167629626454,
            9.0137829973537542,
            5.9928319036469864,
            10.109589059992015
          ],
          "Output": 1.0,
          "activationType": 0,
          "Delta": 0.0,
          "WeightsUpdate": [
            0.0,
            0.0,
            0.0,
            0.0,
            0.0,
            0.0,
            0.0,
            0.0,
            0.0,
            0.0,
            0.0,
            0.0,
            0.0,
            0.0,
            0.0,
            0.0,
            0.0,
            0.0,
            0.0,
            0.0,
            0.0,
            0.0,
            0.0,
            0.0,
            0.0,
            0.0,
            0.0,
            0.0,
            0.0,
            0.0,
            0.0,
            0.0
          ],
          "BiasUpdate": 0.0,
          "PreviousWeightsUpdate": [
            -4.4679510702822262E-11,
            -6.04207537720785E-08,
            -6.0465407805653839E-08,
            -2.2583997059792088E-09,
            -2.9328043157231265E-12,
            4.4628461521201284E-11,
            -6.046834051528111E-08,
            2.21374567273913E-09,
            -6.0465432990538246E-08,
            -2.2137204875710677E-09,
            -2.9327089876198004E-12,
            5.82070077122568E-08,
            -2.2166785717806708E-09,
            -6.0420753384707382E-08,
            -9.8525053152866067E-17,
            2.2567794099714066E-09,
            -6.0465382331945239E-08,
            1.595498415325873E-12,
            2.2137202938239922E-09,
            -9.5173869645768036E-11,
            -6.0463812212066144E-08,
            5.0686815925160657E-20,
            4.1695755748496983E-11,
            -5.8251686835463718E-08,
            2.9223052218463606E-16,
            -5.82516365612653E-08,
            6.2720849424477185E-08,
            -6.0423686382713651E-08,
            4.46287505765533E-11,
            2.2584252783387815E-09,
            -4.4654033705185726E-11,
            2.9073271798984508E-12
          ],
          "PreviousBiasUpdate": 5.8163716267701619E-08
        },
        {
          "Bias": -3.5951456547289968,
          "Weights": [
            2.1692814165009793,
            -6.0126058793889676,
            5.2653538050954154,
            9.0323005664491873,
            7.4040432691273166,
            -0.056399417857485722,
            3.3996656776165142,
            4.004471867685667,
            5.7717208827072906,
            -5.2690057667914045,
            -4.2230961729353638,
            -0.74046770818026153,
            7.7204386484472636,
            -8.5132352654812351,
            1.3053802589970807,
            8.6558216827235128,
            1.6915054409138337,
            9.0621923432142282,
            9.1281282695763437,
            -2.8981645556278233,
            1.0551906342092727,
            7.4574731585809833,
            2.0929053564905162,
            4.4163145733353018,
            0.46355653569716571,
            11.588923121645772,
            -0.61255460328435352,
            4.454270056160869,
            6.008287999368723,
            2.7376885075727224,
            3.7702320772503328,
            0.70905390126040191
          ],
          "Output": 0.99999994128258118,
          "activationType": 0,
          "Delta": -3.2691949256280467E-09,
          "WeightsUpdate": [
            -4.0864936570350585E-11,
            4.0864936570350585E-11,
            8.172987314070117E-11,
            0.0,
            4.0864936570350585E-11,
            -4.0864936570350585E-11,
            0.0,
            0.0,
            0.0,
            4.0864936570350585E-11,
            4.0864936570350585E-11,
            -4.0864936570350585E-11,
            -8.172987314070117E-11,
            0.0,
            -4.0864936570350585E-11,
            4.0864936570350585E-11,
            4.0864936570350585E-11,
            0.0,
            0.0,
            4.0864936570350585E-11,
            -4.0864936570350585E-11,
            4.0864936570350585E-11,
            -4.0864936570350585E-11,
            4.0864936570350585E-11,
            0.0,
            -4.0864936570350585E-11,
            0.0,
            -4.0864936570350585E-11,
            -4.0864936570350585E-11,
            4.0864936570350585E-11,
            0.0,
            -8.172987314070117E-11
          ],
          "BiasUpdate": -4.0864936570350585E-11,
          "PreviousWeightsUpdate": [
            -2.8119031288429031E-08,
            -2.8037380203171765E-08,
            -2.7996534298616095E-08,
            2.8078257797913944E-08,
            4.0864725202535854E-11,
            -2.8119109985771568E-08,
            -2.807817323543304E-08,
            -2.8078251183896457E-08,
            -2.3926787011192549E-16,
            4.0864846236602485E-11,
            4.094336455940131E-11,
            -4.0871459730659045E-11,
            2.7996443179190333E-08,
            2.8078245049541703E-08,
            -2.8119031437363002E-08,
            2.8119130916399096E-08,
            -2.8037301564037878E-08,
            2.8078236776518815E-08,
            -2.8078251663103163E-08,
            -2.803738652113294E-08,
            -4.0794479650643121E-11,
            4.085871132277776E-11,
            -4.095629571992851E-11,
            2.8119201522414641E-08,
            5.6156411369137923E-08,
            -2.811911022544403E-08,
            7.8667321903811E-14,
            -4.0877805638430642E-11,
            -4.0773399929559351E-11,
            4.0864936553341877E-11,
            -1.3254565600052075E-20,
            -2.8159902925231817E-08
          ],
          "PreviousBiasUpdate": -2.8119180619862069E-08
        },
        {
          "Bias": 6.7943997709004327,
          "Weights": [
            4.5614966415358875,
            -0.61826839741810613,
            -8.3007545644357457,
            3.353193154595028,
            -10.305869789782744,
            -7.1835144688118016,
            1.8311142629453905,
            3.2576003453148923,
            -4.4461067850493317,
            -1.0492937242239924,
            -3.3467473577077036,
            7.7565212002154746,
            -7.1940083682688725,
            5.5924827763087936,
            6.2460583845624882,
            -2.9964648417645665,
            -0.26580295936069337,
            -1.795558389913003,
            5.8590459551245946,
            -9.0844740154374453,
            0.44653773803854152,
            -8.4448348676974732,
            8.7575006959218555,
            1.5690139716930489,
            -0.90698940360931724,
            4.3852139134345389,
            -6.0325021580706739,
            -3.6372193569635116,
            -4.4726235029701655,
            -8.0742882555359259,
            -3.7674076398089258,
            0.38115553828858767
          ],
          "Output": 1.0,
          "activationType": 0,
          "Delta": 0.0,
          "WeightsUpdate": [
            0.0,
            0.0,
            0.0,
            0.0,
            0.0,
            0.0,
            0.0,
            0.0,
            0.0,
            0.0,
            0.0,
            0.0,
            0.0,
            0.0,
            0.0,
            0.0,
            0.0,
            0.0,
            0.0,
            0.0,
            0.0,
            0.0,
            0.0,
            0.0,
            0.0,
            0.0,
            0.0,
            0.0,
            0.0,
            0.0,
            0.0,
            0.0
          ],
          "BiasUpdate": 0.0,
          "PreviousWeightsUpdate": [
            5.6202633695088695E-11,
            5.6540203698854036E-11,
            5.6548203833575117E-11,
            3.4813020653889414E-11,
            -1.4892010269460676E-18,
            5.544821165467507E-11,
            5.7286606351088031E-11,
            -3.4805021159012834E-11,
            1.2716871335808045E-12,
            9.00815385070198E-11,
            7.3840508219358273E-13,
            8.8997542111200584E-11,
            3.4066613766793282E-11,
            -5.4192529441652178E-11,
            5.610477472271814E-11,
            -1.4541169733401683E-10,
            5.7196760483825318E-11,
            -5.5410559996899319E-11,
            -3.4715166681022023E-11,
            5.5382374907122637E-11,
            1.8760391708576318E-12,
            6.7093132186247611E-18,
            -6.565555155047245E-13,
            -1.4352765166134221E-10,
            -1.1147112621787756E-10,
            -3.371303217214632E-11,
            -9.0532966474516982E-11,
            1.1738280182370979E-12,
            8.2025789609898743E-13,
            -9.0269236422305869E-11,
            8.0057561768649272E-15,
            5.6194618259433003E-11
          ],
          "PreviousBiasUpdate": 1.4358785724134942E-10
        },
        {
          "Bias": 4.4613778541790969,
          "Weights": [
            2.4517148089818317,
            -7.9356620255744055,
            -2.8359880486498765,
            -2.4425564407538296,
            -5.5244276830339594,
            -3.298531183590228,
            1.9387568372044948,
            -5.9493823648282556,
            -7.58985542747547,
            -4.4069676746118542,
            -1.8550792874653284,
            -4.4301455102837366,
            -1.9011201091196455,
            -4.6697844077911341,
            -8.7479128700730513,
            -3.24403606351357,
            -6.1371396293613953,
            -3.0047370451934126,
            2.0876206525701839,
            -2.6884059163433469,
            -5.0622531555289285,
            0.016299158541689542,
            1.850698011450036,
            -1.4944508011576521,
            -0.50074288972185921,
            -3.2596951530514433,
            4.4169122419840328,
            -4.61843202390792,
            -8.2462310196143171,
            -7.8985950101966766,
            -5.6058029393014346,
            -11.486164269393596
          ],
          "Output": 0.00014573957400649379,
          "activationType": 0,
          "Delta": 1.4189989118185207E-05,
          "WeightsUpdate": [
            1.773748639773151E-07,
            -1.773748639773151E-07,
            -3.5474972795463021E-07,
            0.0,
            -1.773748639773151E-07,
            1.773748639773151E-07,
            0.0,
            0.0,
            0.0,
            -1.773748639773151E-07,
            -1.773748639773151E-07,
            1.773748639773151E-07,
            3.5474972795463021E-07,
            0.0,
            1.773748639773151E-07,
            -1.773748639773151E-07,
            -1.773748639773151E-07,
            0.0,
            0.0,
            -1.773748639773151E-07,
            1.773748639773151E-07,
            -1.773748639773151E-07,
            1.773748639773151E-07,
            -1.773748639773151E-07,
            0.0,
            1.773748639773151E-07,
            0.0,
            1.773748639773151E-07,
            1.773748639773151E-07,
            -1.773748639773151E-07,
            0.0,
            3.5474972795463021E-07
          ],
          "BiasUpdate": 1.773748639773151E-07,
          "PreviousWeightsUpdate": [
            1.7737482909663309E-07,
            -1.77374872052113E-07,
            -3.5474973911609087E-07,
            -2.5296392848738368E-08,
            -1.7755418311958782E-07,
            1.7737482091939303E-07,
            -1.793177647228817E-10,
            2.5296391573933454E-08,
            -3.4982498371261524E-14,
            -2.026712204650324E-07,
            -1.7755417493945025E-07,
            1.5207846687304937E-07,
            3.2927402287027142E-07,
            1.4983025201117968E-14,
            1.7737487098698835E-07,
            -1.5207850864183009E-07,
            -1.7737482889079779E-07,
            9.4577369227172881E-16,
            2.5296356592061129E-08,
            -1.7773349525375865E-07,
            1.7737486502680552E-07,
            -1.7737486961036732E-07,
            1.7719551112709369E-07,
            -1.5207850068733283E-07,
            1.06577356716775E-15,
            2.0267128926144709E-07,
            2.5117045526578073E-08,
            1.771955611956385E-07,
            1.7737483462761194E-07,
            -1.5207843752302277E-07,
            -6.4740693295270992E-19,
            3.5492899968003885E-07
          ],
          "PreviousBiasUpdate": 1.5225782441122249E-07
        },
        {
          "Bias": -2.3003128646453628,
          "Weights": [
            -3.2708816754383068,
            3.0030461381615208,
            7.1567607260001811,
            -2.5272176513000333,
            4.8345571572859463,
            3.4274364476695278,
            4.1390510973112447,
            6.9801573767006735,
            -3.1670417898777692,
            2.1147329953051259,
            5.5051497525697117,
            3.9738057985336628,
            -2.815556101199864,
            6.737054859506495,
            -3.7565627255276293,
            6.4219749727720927,
            4.1882315802933725,
            2.1911658386877515,
            7.1673206688692828,
            5.2250550951907195,
            6.230974244179647,
            5.6274625032167949,
            -3.0201612831517757,
            -0.62010621308817848,
            8.8878260141397529,
            2.1535562868037865,
            4.0431150749302978,
            9.8498770367899464,
            -1.6259928348326245,
            -3.980502479352352,
            8.7865614423198828,
            -2.1796688344203643
          ],
          "Output": 2.9738800826325406E-20,
          "activationType": 0,
          "Delta": -8.83982691925583E-22,
          "WeightsUpdate": [
            -1.1049783649069788E-23,
            1.1049783649069788E-23,
            2.2099567298139576E-23,
            0.0,
            1.1049783649069788E-23,
            -1.1049783649069788E-23,
            0.0,
            0.0,
            0.0,
            1.1049783649069788E-23,
            1.1049783649069788E-23,
            -1.1049783649069788E-23,
            -2.2099567298139576E-23,
            0.0,
            -1.1049783649069788E-23,
            1.1049783649069788E-23,
            1.1049783649069788E-23,
            0.0,
            0.0,
            1.1049783649069788E-23,
            -1.1049783649069788E-23,
            1.1049783649069788E-23,
            -1.1049783649069788E-23,
            1.1049783649069788E-23,
            0.0,
            -1.1049783649069788E-23,
            0.0,
            -1.1049783649069788E-23,
            -1.1049783649069788E-23,
            1.1049783649069788E-23,
            0.0,
            -2.2099567298139576E-23
          ],
          "BiasUpdate": -1.1049783649069788E-23,
          "PreviousWeightsUpdate": [
            -3.152905011571153E-08,
            -3.1261337321795224E-08,
            -3.0993246382552773E-08,
            3.0993246427775022E-08,
            -1.4703459345463117E-13,
            -3.0993242391087052E-08,
            -3.0993229489607115E-08,
            -3.0993157112693153E-08,
            1.9789275716554982E-14,
            -2.6803716606273763E-10,
            1.6892431145602508E-14,
            2.6800166960723262E-10,
            3.0993213737260492E-08,
            3.0993230584221234E-08,
            -3.1261231113830563E-08,
            3.0993340058155013E-08,
            -3.1261250903443751E-08,
            3.0725244343967425E-08,
            -3.0993137323055486E-08,
            -3.1260995858200044E-08,
            1.6478047570463111E-14,
            -2.6800162404884436E-10,
            -8.6418567550128584E-14,
            3.0725370710093777E-08,
            6.1718474248229817E-08,
            -3.0993176901943613E-08,
            -3.6881029335543438E-14,
            2.6783879124518477E-10,
            -2.6805425766353026E-10,
            -1.9835052556169858E-14,
            1.6283274015969295E-13,
            -3.0993136183155564E-08
          ],
          "PreviousBiasUpdate": -3.0725118147581796E-08
        },
        {
          "Bias": 5.1959086132413725,
          "Weights": [
            4.1213993377991009,
            -2.5390764019405507,
            -2.5995172440323309,
            -10.081472410602009,
            7.1463596217241117,
            -5.1457225901815029,
            -4.514924491031298,
            -4.699575403484805,
            5.6319282863722933,
            5.6478995932131948,
            8.7759037253926451,
            4.2921991143756451,
            -3.2198486769948809,
            -4.33337488225669,
            1.0424961492930853,
            -4.2590120674586878,
            -3.8686521219284682,
            -5.8269416047803375,
            5.6769991598706806,
            -4.3466888454437829,
            6.9207389838016153,
            7.7848400705513123,
            -6.6364801072879294,
            -8.2065824616746852,
            -2.4322096796047896,
            1.7385311159926704,
            -8.6015682461361376,
            -12.499917469874559,
            4.2278599716044631,
            -5.1647993166691384,
            -7.8459520279418342,
            1.3907080665831184
          ],
          "Output": 0.97870069770424384,
          "activationType": 0,
          "Delta": 5.7311015734446048E-05,
          "WeightsUpdate": [
            7.163876966805756E-07,
            -7.163876966805756E-07,
            -1.4327753933611512E-06,
            0.0,
            -7.163876966805756E-07,
            7.163876966805756E-07,
            0.0,
            0.0,
            0.0,
            -7.163876966805756E-07,
            -7.163876966805756E-07,
            7.163876966805756E-07,
            1.4327753933611512E-06,
            0.0,
            7.163876966805756E-07,
            -7.163876966805756E-07,
            -7.163876966805756E-07,
            0.0,
            0.0,
            -7.163876966805756E-07,
            7.163876966805756E-07,
            -7.163876966805756E-07,
            7.163876966805756E-07,
            -7.163876966805756E-07,
            0.0,
            7.163876966805756E-07,
            0.0,
            7.163876966805756E-07,
            7.163876966805756E-07,
            -7.163876966805756E-07,
            0.0,
            1.4327753933611512E-06
          ],
          "BiasUpdate": 7.163876966805756E-07,
          "PreviousWeightsUpdate": [
            6.7293920770954465E-07,
            -7.3811196685119428E-07,
            -1.4327753957217211E-06,
            -3.1681513113506786E-17,
            -7.163877007584695E-07,
            7.1638779329627371E-07,
            3.3536678198757735E-13,
            -9.6158171174375707E-14,
            6.3432123270639034E-17,
            -7.3811196429976831E-07,
            -7.1638735988035186E-07,
            7.38112060723031E-07,
            1.4327751543665287E-06,
            1.0026546026059459E-13,
            6.946636692647821E-07,
            -7.163894621512709E-07,
            -7.381117252353329E-07,
            -2.1722598503693479E-08,
            -9.6308621283800042E-14,
            -7.3811225463537514E-07,
            7.1638980033401091E-07,
            -7.3811206325488217E-07,
            7.16387455136729E-07,
            -7.3811182033504269E-07,
            -2.1724702087284623E-08,
            7.1638760038252733E-07,
            3.3546839243577819E-13,
            7.3811215822724415E-07,
            6.9466376573635766E-07,
            -7.1638769657046142E-07,
            -9.4974580796470252E-14,
            1.4327757302991645E-06
          ],
          "PreviousBiasUpdate": 7.3810986460152094E-07
        },
        {
          "Bias": -4.5942489429784832,
          "Weights": [
            -3.6763379247870955,
            6.2510381964240462,
            -4.9306622679582839,
            2.967545598630005,
            4.7468757417571084,
            -3.869589173746681,
            -5.5177821435094341,
            3.0204010446182452,
            -5.9709067074490374,
            -1.4485764719308711,
            -0.87979796926689646,
            -2.85321809901623,
            1.6959645902856495,
            -7.0427946581394689,
            -4.5093197408869505,
            -14.365105771096514,
            0.77970963111983793,
            -3.2402839030382284,
            0.43096800701666216,
            -11.845829538038492,
            -1.8078980910621749,
            4.2267601805934945,
            0.77062013758252945,
            -8.1657270712903234,
            -2.1799940562333484,
            2.0989491439007986,
            -7.2521384340644728,
            7.6887233056235367,
            -6.6648160191894261,
            -13.344156871553704,
            -1.3036764260585123,
            3.9444638879741971
          ],
          "Output": 1.0,
          "activationType": 0,
          "Delta": 0.0,
          "WeightsUpdate": [
            0.0,
            0.0,
            0.0,
            0.0,
            0.0,
            0.0,
            0.0,
            0.0,
            0.0,
            0.0,
            0.0,
            0.0,
            0.0,
            0.0,
            0.0,
            0.0,
            0.0,
            0.0,
            0.0,
            0.0,
            0.0,
            0.0,
            0.0,
            0.0,
            0.0,
            0.0,
            0.0,
            0.0,
            0.0,
            0.0,
            0.0,
            0.0
          ],
          "BiasUpdate": 0.0,
          "PreviousWeightsUpdate": [
            5.7037737307663441E-11,
            4.7708277999955951E-09,
            4.7708277952685781E-09,
            -5.7041049904697138E-11,
            3.246412319135755E-15,
            5.7040967318419312E-11,
            4.7708344258992371E-09,
            5.7037632703353084E-11,
            4.7137900249600105E-09,
            -8.974749131512045E-21,
            3.2088636759456979E-15,
            -4.71378357143507E-09,
            -5.7044241460017579E-11,
            4.6567458643619556E-09,
            5.7040981097550329E-11,
            -5.7040927732586573E-11,
            4.7708277622676566E-09,
            -5.7040931591719456E-11,
            5.7044226674953809E-11,
            5.70409845282971E-11,
            4.7137868306488416E-09,
            -3.2281965814009291E-15,
            1.7236896160923449E-17,
            4.656742552761706E-09,
            -1.1408194838028899E-10,
            4.77083104366018E-09,
            -4.7137868685105162E-09,
            4.7137901083455188E-09,
            -3.3135220367612435E-15,
            -4.4675596854033005E-20,
            6.2873373685656528E-20,
            5.70442423670829E-11
          ],
          "PreviousBiasUpdate": -4.656742673607392E-09
        },
        {
          "Bias": 8.7774202656613554,
          "Weights": [
            6.3572962624923486,
            -8.7091621295371784,
            8.0351534184331381,
            -1.8734862902230449,
            -3.7698189714587409,
            -1.7360267008730852,
            0.69877130276656674,
            -3.2763447341431711,
            1.5013534064141825,
            -0.52484700011069452,
            -12.291629154768218,
            1.4947679453005285,
            -9.3851614036041653,
            -2.004686916647346,
            -6.0968272046379415,
            -10.206834581607318,
            -8.6286160203852251,
            -5.9078848924535921,
            -7.3418911424541191,
            0.32479166575638496,
            0.87596668109541731,
            -5.1057972390084574,
            0.63938643525953021,
            -7.5082984619400364,
            -4.7833836658199456,
            2.67566268306047,
            6.5949272000648493,
            4.9954330769761892,
            -1.9574329327758675,
            -2.0721672203529384,
            5.2475901567547671,
            1.4802376576961109
          ],
          "Output": 1.0,
          "activationType": 0,
          "Delta": 0.0,
          "WeightsUpdate": [
            0.0,
            0.0,
            0.0,
            0.0,
            0.0,
            0.0,
            0.0,
            0.0,
            0.0,
            0.0,
            0.0,
            0.0,
            0.0,
            0.0,
            0.0,
            0.0,
            0.0,
            0.0,
            0.0,
            0.0,
            0.0,
            0.0,
            0.0,
            0.0,
            0.0,
            0.0,
            0.0,
            0.0,
            0.0,
            0.0,
            0.0,
            0.0
          ],
          "BiasUpdate": 0.0,
          "PreviousWeightsUpdate": [
            -2.6406678206677333E-15,
            5.2247804601020511E-14,
            1.0451435012239807E-13,
            3.8072138851687614E-14,
            5.7878000820421812E-14,
            4.95731207734873E-14,
            5.223603503886459E-14,
            -3.8005877912980215E-14,
            1.698461250204241E-16,
            3.5089697932027727E-14,
            5.4585287457366377E-17,
            9.0291278962227815E-14,
            3.520504372050432E-14,
            -1.0730157782436668E-13,
            -5.2213673685157926E-14,
            1.6463776928881226E-13,
            -8.8299952978172619E-17,
            -2.0540344831689903E-13,
            -3.7905622039370709E-14,
            4.9431803576125662E-14,
            -2.0534726869078951E-13,
            5.2244497129971793E-14,
            5.2359877991993E-14,
            -9.0093928125688019E-14,
            -3.0801133968758218E-17,
            -3.8191319441776472E-14,
            -3.5038326515008921E-14,
            -4.942358707158145E-14,
            -5.2047030532882289E-14,
            -3.8194512127307441E-14,
            -2.8159811672419153E-15,
            4.9602175571390606E-14
          ],
          "PreviousBiasUpdate": 1.8821278340696034E-13
        },
        {
          "Bias": 0.26486802541196769,
          "Weights": [
            13.976667255551407,
            7.4334862349180471,
            -1.8689132342291948,
            -0.46980360065642068,
            8.6277919257172044,
            -3.9592422473889415,
            9.6507759966411868,
            1.3311146934131775,
            -0.91554126824471238,
            6.6959078517664619,
            9.6039579682843712,
            2.5547415327649055,
            5.6005890943619736,
            12.903405504202299,
            -0.6195550172851938,
            3.8127767896690861,
            2.2061690260479496,
            -5.0534511700669027,
            -4.5887115675182262,
            1.5904098541836102,
            4.6699989682998977,
            3.996854187512731,
            2.5011497173808754,
            -0.82968149485220744,
            2.0397681460930466,
            -5.7910338466651687,
            6.5982627765288235,
            5.5708896571769886,
            -2.5184823605848128,
            -2.1772084608108178,
            -3.7368999079116518,
            9.2951753934866019
          ],
          "Output": 0.99990086163407266,
          "activationType": 0,
          "Delta": -4.1426187963609156E-06,
          "WeightsUpdate": [
            -5.1782734954511445E-08,
            5.1782734954511445E-08,
            1.0356546990902289E-07,
            0.0,
            5.1782734954511445E-08,
            -5.1782734954511445E-08,
            0.0,
            0.0,
            0.0,
            5.1782734954511445E-08,
            5.1782734954511445E-08,
            -5.1782734954511445E-08,
            -1.0356546990902289E-07,
            0.0,
            -5.1782734954511445E-08,
            5.1782734954511445E-08,
            5.1782734954511445E-08,
            0.0,
            0.0,
            5.1782734954511445E-08,
            -5.1782734954511445E-08,
            5.1782734954511445E-08,
            -5.1782734954511445E-08,
            5.1782734954511445E-08,
            0.0,
            -5.1782734954511445E-08,
            0.0,
            -5.1782734954511445E-08,
            -5.1782734954511445E-08,
            5.1782734954511445E-08,
            0.0,
            -1.0356546990902289E-07
          ],
          "BiasUpdate": -5.1782734954511445E-08,
          "PreviousWeightsUpdate": [
            -5.2418275295748996E-08,
            5.1147193177606722E-08,
            1.0292992669833329E-07,
            6.349069488380841E-10,
            5.1782733525348176E-08,
            -5.24182767246143E-08,
            -6.3554176715017014E-10,
            -6.3490696353729007E-10,
            -1.1690961034080508E-17,
            5.17821015671819E-08,
            5.1782734949647041E-08,
            -5.1783369764236988E-08,
            -1.0293056295521681E-07,
            6.3554319232389538E-10,
            -5.2418273866824644E-08,
            5.2418848475485253E-08,
            5.1147194601678151E-08,
            6.3560055860091288E-10,
            -6.3490695359194826E-10,
            5.1147193184715995E-08,
            -5.178267474867929E-08,
            5.1782733525523075E-08,
            -5.1782736383138237E-08,
            5.2418910100320708E-08,
            1.271080682155812E-09,
            -5.2417641914883636E-08,
            6.33389510317253E-13,
            -5.17827335323791E-08,
            -5.1782733530515673E-08,
            5.1783368341951257E-08,
            1.2426587348403702E-19,
            -1.0420101167882633E-07
          ],
          "PreviousBiasUpdate": -5.2418967464667505E-08
        },
        {
          "Bias": -1.5023184812818227,
          "Weights": [
            -0.57844889806853061,
            -5.7220887882199,
            2.4073372539389677,
            -8.1349608768334445,
            1.2278892696337964,
            -2.0328106863436775,
            8.2215898956554376,
            -3.6580942606822675,
            -1.44614144434453,
            5.3107589380036764,
            -6.9665392417955037,
            -5.344311278395617,
            -1.0477753606373297,
            -1.1079920551986573,
            3.0322450565704009,
            3.7162602441827586,
            -2.664387184244402,
            -3.3051578410182127,
            -10.848155947578993,
            -4.26075127039534,
            -5.5320534066785756,
            1.1494030494182128,
            -4.987489001808302,
            -8.823529380423965,
            0.35277994152047421,
            2.5440607230452077,
            2.7783142831606331,
            -2.6133837140602068,
            -9.411006750524189,
            -0.71118442505080259,
            -6.8551472159632141,
            -7.7546860789076391
          ],
          "Output": 3.1119377329475724E-14,
          "activationType": 0,
          "Delta": 1.6535921943664241E-15,
          "WeightsUpdate": [
            2.06699024295803E-17,
            -2.06699024295803E-17,
            -4.13398048591606E-17,
            0.0,
            -2.06699024295803E-17,
            2.06699024295803E-17,
            0.0,
            0.0,
            0.0,
            -2.06699024295803E-17,
            -2.06699024295803E-17,
            2.06699024295803E-17,
            4.13398048591606E-17,
            0.0,
            2.06699024295803E-17,
            -2.06699024295803E-17,
            -2.06699024295803E-17,
            0.0,
            0.0,
            -2.06699024295803E-17,
            2.06699024295803E-17,
            -2.06699024295803E-17,
            2.06699024295803E-17,
            -2.06699024295803E-17,
            0.0,
            2.06699024295803E-17,
            0.0,
            2.06699024295803E-17,
            2.06699024295803E-17,
            -2.06699024295803E-17,
            0.0,
            4.13398048591606E-17
          ],
          "BiasUpdate": 2.06699024295803E-17,
          "PreviousWeightsUpdate": [
            3.4833597097621487E-08,
            3.483712624857149E-08,
            3.48371695714952E-08,
            8.5231345441467032E-08,
            3.6859109259928372E-10,
            3.4833628823302227E-08,
            3.5205661228033828E-08,
            -8.5231344216108937E-08,
            3.489779928630148E-12,
            1.2006493220896144E-07,
            3.6854131449368535E-10,
            1.2006147819651026E-07,
            8.5599885360635969E-08,
            -3.4830191489720046E-08,
            3.4833538324878836E-08,
            -1.5489850605384265E-07,
            3.4837077772356217E-08,
            -3.4833572642733585E-08,
            -8.5231344068988843E-08,
            3.5570722971284236E-08,
            3.4896556403857397E-12,
            5.7452545918632349E-14,
            3.6858975971283425E-10,
            -1.5489505721334834E-07,
            -6.9667152891751132E-08,
            -8.5227854347812057E-08,
            -1.196998742238222E-07,
            3.7197221889679053E-10,
            -4.3390623074776807E-14,
            -1.2006492579964924E-07,
            1.3050916360956808E-15,
            3.4465088977020641E-08
          ],
          "PreviousBiasUpdate": 1.545264190694986E-07
        }
      ]
    },
    {
      "Neurons": [
        {
          "Bias": 0.016086273281250247,
          "Weights": [
            -3.1881339563806685,
            -7.187182472666251,
            9.4607193609321651,
            2.2339086665153802,
            9.1575689551855053,
            -9.205968751033188,
            6.7240646483036777,
            -4.0680123574049309,
            5.3044602192536177,
            17.501682044776381
          ],
          "Output": 0.12474879237008984,
          "activationType": 0,
          "Delta": 0.0012332343772211061,
          "WeightsUpdate": [
            1.5415429715263827E-05,
            1.5415428810109583E-05,
            1.5415429715263827E-05,
            2.2466381598295959E-09,
            4.5843639395444912E-25,
            1.5087091817739441E-05,
            1.5415429715263827E-05,
            1.5415429715263827E-05,
            1.5413901454751787E-05,
            4.7971857400530753E-19
          ],
          "BiasUpdate": 1.5415429715263827E-05,
          "PreviousWeightsUpdate": [
            1.5415440196232544E-05,
            1.5416576217647242E-05,
            1.5416579527360389E-05,
            3.3940205695788808E-09,
            1.1498202812458081E-09,
            1.5088241622151007E-05,
            1.5415432108375954E-05,
            1.5416579565212976E-05,
            1.5413903885064696E-05,
            1.9022762527659519E-14
          ],
          "PreviousBiasUpdate": 1.5416579528082047E-05
        },
        {
          "Bias": -4.61428646547835,
          "Weights": [
            1.8736090904818485,
            1.8850730747865672,
            -9.3974738805385059,
            -0.54318819704567878,
            -2.2389770531479312,
            -6.31325314776767,
            -0.10164009292722642,
            0.71340605434090443,
            -0.45348947242335591,
            -2.5600283874670207
          ],
          "Output": 8.5596507486322465E-08,
          "activationType": 0,
          "Delta": 6.7147065373421878E-09,
          "WeightsUpdate": [
            8.3933831716777355E-11,
            8.39338267883994E-11,
            8.3933831716777355E-11,
            1.2232480879135869E-14,
            2.496091504015556E-30,
            8.2146099662200589E-11,
            8.3933831716777355E-11,
            8.3933831716777355E-11,
            8.3925510653854939E-11,
            2.6119685799031118E-24
          ],
          "BiasUpdate": 8.3933831716777355E-11,
          "PreviousWeightsUpdate": [
            8.3995204048867586E-11,
            8.393424483242987E-11,
            8.3973938946293749E-11,
            2.2024261797494126E-14,
            3.0135947239814696E-14,
            8.22046426518369E-11,
            8.3974136705885308E-11,
            8.3974083064240391E-11,
            8.39861766974885E-11,
            9.7547600425706444E-15
          ],
          "PreviousBiasUpdate": 8.3974016749483835E-11
        },
        {
          "Bias": 2.0297966706694952,
          "Weights": [
            -3.2094498961023512,
            8.5685184139384258,
            -2.4860747251289519,
            -14.132029418512593,
            11.467036757009657,
            5.0352197776788419,
            1.2190171686772888,
            -16.306914277695547,
            4.6792848468653254,
            -4.9656424550196654
          ],
          "Output": 0.3589185824504933,
          "activationType": 0,
          "Delta": -0.0031113509256297492,
          "WeightsUpdate": [
            -3.8891886570371869E-05,
            -3.8891884286740679E-05,
            -3.8891886570371869E-05,
            -5.668086981074873E-09,
            -1.1565980684763289E-24,
            -3.8063516521457256E-05,
            -3.8891886570371869E-05,
            -3.8891886570371869E-05,
            -3.888803089228945E-05,
            -1.2102912932385718E-18
          ],
          "BiasUpdate": -3.8891886570371869E-05,
          "PreviousWeightsUpdate": [
            -3.9221614435215695E-05,
            -3.889517713035605E-05,
            -3.9221625827152134E-05,
            -5.6843403973833564E-09,
            -3.2697211086722748E-07,
            -3.8393260563029516E-05,
            -3.9221600597390319E-05,
            -3.9221630722242408E-05,
            -3.9217712669846687E-05,
            -2.6413439832142521E-09
          ],
          "PreviousBiasUpdate": -3.9221630573709238E-05
        },
        {
          "Bias": 15.614374715731715,
          "Weights": [
            -8.4864077158263278,
            -3.9282045752232189,
            0.7384498747139393,
            11.036371507095868,
            -1.0701969558096482,
            6.44054042302296,
            5.3297729744700275,
            -9.6930368053850469,
            -5.355903415049168,
            2.0129192235961675
          ],
          "Output": 0.62808059924607862,
          "activationType": 0,
          "Delta": 0.0055623163463994043,
          "WeightsUpdate": [
            6.9528954329992556E-05,
            6.9528950247431823E-05,
            6.9528954329992556E-05,
            1.0133120185170077E-08,
            2.0677077244823239E-24,
            6.8048036113410219E-05,
            6.9528954329992556E-05,
            6.9528954329992556E-05,
            6.9522061343075641E-05,
            2.1636977651189231E-18
          ],
          "BiasUpdate": 6.9528954329992556E-05,
          "PreviousWeightsUpdate": [
            6.9740579997321485E-05,
            6.9531053238624618E-05,
            6.9740576950986193E-05,
            1.0133516987496597E-08,
            2.0984625046844325E-07,
            6.8259661932962312E-05,
            6.9740571387656841E-05,
            6.9740580149481548E-05,
            6.9733657504420462E-05,
            1.695670502924023E-09
          ],
          "PreviousBiasUpdate": 6.9740579997442834E-05
        },
        {
          "Bias": -9.7762065832244716,
          "Weights": [
            -4.7903898374250415,
            -3.6347309507031236,
            -4.5376573933974989,
            -0.29995795170838746,
            -3.944754995458466,
            -6.3270364585960817,
            -3.4101591999474237,
            3.2091564844088243,
            2.8844327405222567,
            6.3759741755996364
          ],
          "Output": 3.9862937686200223E-12,
          "activationType": 0,
          "Delta": -3.5517973190524549E-13,
          "WeightsUpdate": [
            -4.439746648815569E-15,
            -4.4397463881251059E-15,
            -4.439746648815569E-15,
            -6.4704678529513942E-19,
            -1.320327413084719E-34,
            -4.345183142825876E-15,
            -4.439746648815569E-15,
            -4.439746648815569E-15,
            -4.439306499587674E-15,
            -1.3816215121176703E-28
          ],
          "BiasUpdate": -4.439746648815569E-15,
          "PreviousWeightsUpdate": [
            -3.4491322162435056E-12,
            -5.6463429496892153E-15,
            7.1226858109805659E-11,
            7.1231679475907433E-11,
            5.4745852997044241E-14,
            1.2597435235131247E-12,
            7.1406749293899371E-11,
            7.1230634227953813E-11,
            -3.630499185360929E-12,
            7.12648363936572E-11
          ],
          "PreviousBiasUpdate": 7.1225720552334235E-11
        },
        {
          "Bias": -6.0091303679129018,
          "Weights": [
            -3.4218331309705032,
            3.9148836584403131,
            1.821332170873053,
            -9.7544177548812563,
            0.47826268116201287,
            -3.9016512310289517,
            -6.2146307529436342,
            -0.94218523793197861,
            2.3346290552020723,
            -3.0833777883444462
          ],
          "Output": 4.3857888934298005E-06,
          "activationType": 0,
          "Delta": -1.7961962216966792E-07,
          "WeightsUpdate": [
            -2.2452452771208493E-09,
            -2.2452451452858422E-09,
            -2.2452452771208493E-09,
            -3.2722109022768468E-13,
            -6.6770902102544733E-29,
            -2.1974231192353334E-09,
            -2.2452452771208493E-09,
            -2.2452452771208493E-09,
            -2.2450226871729696E-09,
            -6.9870634975947E-23
          ],
          "BiasUpdate": -2.2452452771208493E-09,
          "PreviousWeightsUpdate": [
            -2.246915233550437E-09,
            -2.2452714481086636E-09,
            -2.2469243798496223E-09,
            -3.3655107510417556E-13,
            -1.678972396002011E-12,
            -2.1991195047859334E-09,
            -2.2469321767650542E-09,
            -2.2469416443599759E-09,
            -2.2466923426105728E-09,
            -1.3514767619386175E-14
          ],
          "PreviousBiasUpdate": -2.2469244895219863E-09
        },
        {
          "Bias": -7.6892801784395148,
          "Weights": [
            -1.9632426785055854,
            -1.7299183249699115,
            0.1503298774684946,
            4.2034899253612545,
            -8.8742157428838979,
            -9.7453311036122656,
            -0.24140637212380103,
            3.095955173919668,
            -1.9750668524128974,
            1.8348300034578171
          ],
          "Output": 2.3017801652151605E-09,
          "activationType": 0,
          "Delta": 7.2804445082861548E-11,
          "WeightsUpdate": [
            9.100555635357694E-13,
            9.1005551009965565E-13,
            9.100555635357694E-13,
            1.3263111015194267E-16,
            2.7063961144879572E-32,
            8.9067201498208632E-13,
            9.100555635357694E-13,
            9.100555635357694E-13,
            9.0996534211429734E-13,
            2.8320362472458277E-26
          ],
          "BiasUpdate": 9.100555635357694E-13,
          "PreviousWeightsUpdate": [
            3.0450174362084569E-10,
            9.3420110567981248E-13,
            -3.9023009130517895E-08,
            -3.9022886390614916E-08,
            -3.0180307256802624E-11,
            -2.3888564221932567E-09,
            -3.9012016360358915E-08,
            -3.90190171472958E-08,
            1.0020960261666313E-10,
            -3.9018141613721753E-08
          ],
          "PreviousBiasUpdate": -3.90226618606999E-08
        },
        {
          "Bias": 3.2237106418751256,
          "Weights": [
            -3.7186102026697165,
            0.76227969775857984,
            2.7255604596387588,
            -4.8202125245134448,
            0.27505503487039623,
            -2.7191996543040338,
            0.61905482422805358,
            3.2388319142457935,
            -1.7875455936670035,
            2.2032025893495475
          ],
          "Output": 0.91692004297950169,
          "activationType": 0,
          "Delta": 0.0022269996890453797,
          "WeightsUpdate": [
            2.7837496113067248E-05,
            2.7837494478521329E-05,
            2.7837496113067248E-05,
            4.0570248249258478E-09,
            8.2785375241011464E-25,
            2.7244576868198093E-05,
            2.7837496113067248E-05,
            2.7837496113067248E-05,
            2.7834736349191089E-05,
            8.6628554545035348E-19
          ],
          "BiasUpdate": 2.7837496113067248E-05,
          "PreviousWeightsUpdate": [
            3.2936351095949729E-05,
            2.78487120706205E-05,
            3.2907825787344391E-05,
            4.0159550410435062E-06,
            1.0449972638738469E-06,
            3.2315084029675563E-05,
            3.2915811348048085E-05,
            3.2907893996541958E-05,
            3.2975196340897468E-05,
            3.96956328803037E-06
          ],
          "PreviousBiasUpdate": 3.2907874668444581E-05
        },
        {
          "Bias": 7.44852081340512,
          "Weights": [
            3.8387446845446536,
            1.1338329573677191,
            5.9693666297738863,
            -6.6440595191632239,
            5.1194958506550945,
            -7.94589381512528,
            0.82294762895589346,
            3.2728154615557927,
            1.0696331089978022,
            9.4512215013733485
          ],
          "Output": 0.9999998595107964,
          "activationType": 0,
          "Delta": -2.7317805281297495E-09,
          "WeightsUpdate": [
            -3.4147256601621868E-11,
            -3.41472545965831E-11,
            -3.4147256601621868E-11,
            -4.976606630610804E-15,
            -1.015498462841058E-30,
            -3.3419943860693168E-11,
            -3.4147256601621868E-11,
            -3.4147256601621868E-11,
            -3.414387129840148E-11,
            -1.0626413629523018E-24
          ],
          "BiasUpdate": -3.4147256601621868E-11,
          "PreviousWeightsUpdate": [
            -3.4544227965590866E-11,
            -3.5885617085592451E-11,
            -3.5011264714850167E-11,
            -8.6926374160865539E-13,
            -1.8932270597012836E-12,
            -3.4360032705959262E-11,
            -3.3240339633246316E-11,
            -3.5224570807510177E-11,
            -3.4662291679925885E-11,
            7.5047679936449691E-13
          ],
          "PreviousBiasUpdate": -3.5011268668996188E-11
        },
        {
          "Bias": 2.5877136585070026,
          "Weights": [
            -5.519198476966217,
            8.0403487686548445,
            10.358144433812448,
            -19.399586076296753,
            6.415028468344361,
            -15.477220728185182,
            -4.5881724576460181,
            17.261072704632774,
            6.7042239879633607,
            1.7636626258278758
          ],
          "Output": 0.99999999719839594,
          "activationType": 0,
          "Delta": -6.9417979850545642E-11,
          "WeightsUpdate": [
            -8.6772474813182054E-13,
            -8.6772469718126306E-13,
            -8.6772474813182054E-13,
            -1.2646183514762364E-16,
            -2.5805093456765591E-32,
            -8.4924281641185206E-13,
            -8.6772474813182054E-13,
            -8.6772474813182054E-13,
            -8.67638723318216E-13,
            -2.7003053855238407E-26
          ],
          "BiasUpdate": -8.6772474813182054E-13,
          "PreviousWeightsUpdate": [
            -3.2967210517803431E-08,
            -1.4854160187497034E-12,
            -3.2703729546188718E-08,
            -3.2661691364638865E-08,
            -6.62472974561374E-13,
            -3.2759462462315179E-08,
            -3.2706407693951015E-08,
            -3.2704228498147825E-08,
            -3.2925291636460625E-08,
            -3.2263748741065111E-08
          ],
          "PreviousBiasUpdate": -3.2704091597512154E-08
        }
      ],
      "<Neurons>k__BackingField": [
        {
          "Bias": 0.016086273281250247,
          "Weights": [
            -3.1881339563806685,
            -7.187182472666251,
            9.4607193609321651,
            2.2339086665153802,
            9.1575689551855053,
            -9.205968751033188,
            6.7240646483036777,
            -4.0680123574049309,
            5.3044602192536177,
            17.501682044776381
          ],
          "Output": 0.12474879237008984,
          "activationType": 0,
          "Delta": 0.0012332343772211061,
          "WeightsUpdate": [
            1.5415429715263827E-05,
            1.5415428810109583E-05,
            1.5415429715263827E-05,
            2.2466381598295959E-09,
            4.5843639395444912E-25,
            1.5087091817739441E-05,
            1.5415429715263827E-05,
            1.5415429715263827E-05,
            1.5413901454751787E-05,
            4.7971857400530753E-19
          ],
          "BiasUpdate": 1.5415429715263827E-05,
          "PreviousWeightsUpdate": [
            1.5415440196232544E-05,
            1.5416576217647242E-05,
            1.5416579527360389E-05,
            3.3940205695788808E-09,
            1.1498202812458081E-09,
            1.5088241622151007E-05,
            1.5415432108375954E-05,
            1.5416579565212976E-05,
            1.5413903885064696E-05,
            1.9022762527659519E-14
          ],
          "PreviousBiasUpdate": 1.5416579528082047E-05
        },
        {
          "Bias": -4.61428646547835,
          "Weights": [
            1.8736090904818485,
            1.8850730747865672,
            -9.3974738805385059,
            -0.54318819704567878,
            -2.2389770531479312,
            -6.31325314776767,
            -0.10164009292722642,
            0.71340605434090443,
            -0.45348947242335591,
            -2.5600283874670207
          ],
          "Output": 8.5596507486322465E-08,
          "activationType": 0,
          "Delta": 6.7147065373421878E-09,
          "WeightsUpdate": [
            8.3933831716777355E-11,
            8.39338267883994E-11,
            8.3933831716777355E-11,
            1.2232480879135869E-14,
            2.496091504015556E-30,
            8.2146099662200589E-11,
            8.3933831716777355E-11,
            8.3933831716777355E-11,
            8.3925510653854939E-11,
            2.6119685799031118E-24
          ],
          "BiasUpdate": 8.3933831716777355E-11,
          "PreviousWeightsUpdate": [
            8.3995204048867586E-11,
            8.393424483242987E-11,
            8.3973938946293749E-11,
            2.2024261797494126E-14,
            3.0135947239814696E-14,
            8.22046426518369E-11,
            8.3974136705885308E-11,
            8.3974083064240391E-11,
            8.39861766974885E-11,
            9.7547600425706444E-15
          ],
          "PreviousBiasUpdate": 8.3974016749483835E-11
        },
        {
          "Bias": 2.0297966706694952,
          "Weights": [
            -3.2094498961023512,
            8.5685184139384258,
            -2.4860747251289519,
            -14.132029418512593,
            11.467036757009657,
            5.0352197776788419,
            1.2190171686772888,
            -16.306914277695547,
            4.6792848468653254,
            -4.9656424550196654
          ],
          "Output": 0.3589185824504933,
          "activationType": 0,
          "Delta": -0.0031113509256297492,
          "WeightsUpdate": [
            -3.8891886570371869E-05,
            -3.8891884286740679E-05,
            -3.8891886570371869E-05,
            -5.668086981074873E-09,
            -1.1565980684763289E-24,
            -3.8063516521457256E-05,
            -3.8891886570371869E-05,
            -3.8891886570371869E-05,
            -3.888803089228945E-05,
            -1.2102912932385718E-18
          ],
          "BiasUpdate": -3.8891886570371869E-05,
          "PreviousWeightsUpdate": [
            -3.9221614435215695E-05,
            -3.889517713035605E-05,
            -3.9221625827152134E-05,
            -5.6843403973833564E-09,
            -3.2697211086722748E-07,
            -3.8393260563029516E-05,
            -3.9221600597390319E-05,
            -3.9221630722242408E-05,
            -3.9217712669846687E-05,
            -2.6413439832142521E-09
          ],
          "PreviousBiasUpdate": -3.9221630573709238E-05
        },
        {
          "Bias": 15.614374715731715,
          "Weights": [
            -8.4864077158263278,
            -3.9282045752232189,
            0.7384498747139393,
            11.036371507095868,
            -1.0701969558096482,
            6.44054042302296,
            5.3297729744700275,
            -9.6930368053850469,
            -5.355903415049168,
            2.0129192235961675
          ],
          "Output": 0.62808059924607862,
          "activationType": 0,
          "Delta": 0.0055623163463994043,
          "WeightsUpdate": [
            6.9528954329992556E-05,
            6.9528950247431823E-05,
            6.9528954329992556E-05,
            1.0133120185170077E-08,
            2.0677077244823239E-24,
            6.8048036113410219E-05,
            6.9528954329992556E-05,
            6.9528954329992556E-05,
            6.9522061343075641E-05,
            2.1636977651189231E-18
          ],
          "BiasUpdate": 6.9528954329992556E-05,
          "PreviousWeightsUpdate": [
            6.9740579997321485E-05,
            6.9531053238624618E-05,
            6.9740576950986193E-05,
            1.0133516987496597E-08,
            2.0984625046844325E-07,
            6.8259661932962312E-05,
            6.9740571387656841E-05,
            6.9740580149481548E-05,
            6.9733657504420462E-05,
            1.695670502924023E-09
          ],
          "PreviousBiasUpdate": 6.9740579997442834E-05
        },
        {
          "Bias": -9.7762065832244716,
          "Weights": [
            -4.7903898374250415,
            -3.6347309507031236,
            -4.5376573933974989,
            -0.29995795170838746,
            -3.944754995458466,
            -6.3270364585960817,
            -3.4101591999474237,
            3.2091564844088243,
            2.8844327405222567,
            6.3759741755996364
          ],
          "Output": 3.9862937686200223E-12,
          "activationType": 0,
          "Delta": -3.5517973190524549E-13,
          "WeightsUpdate": [
            -4.439746648815569E-15,
            -4.4397463881251059E-15,
            -4.439746648815569E-15,
            -6.4704678529513942E-19,
            -1.320327413084719E-34,
            -4.345183142825876E-15,
            -4.439746648815569E-15,
            -4.439746648815569E-15,
            -4.439306499587674E-15,
            -1.3816215121176703E-28
          ],
          "BiasUpdate": -4.439746648815569E-15,
          "PreviousWeightsUpdate": [
            -3.4491322162435056E-12,
            -5.6463429496892153E-15,
            7.1226858109805659E-11,
            7.1231679475907433E-11,
            5.4745852997044241E-14,
            1.2597435235131247E-12,
            7.1406749293899371E-11,
            7.1230634227953813E-11,
            -3.630499185360929E-12,
            7.12648363936572E-11
          ],
          "PreviousBiasUpdate": 7.1225720552334235E-11
        },
        {
          "Bias": -6.0091303679129018,
          "Weights": [
            -3.4218331309705032,
            3.9148836584403131,
            1.821332170873053,
            -9.7544177548812563,
            0.47826268116201287,
            -3.9016512310289517,
            -6.2146307529436342,
            -0.94218523793197861,
            2.3346290552020723,
            -3.0833777883444462
          ],
          "Output": 4.3857888934298005E-06,
          "activationType": 0,
          "Delta": -1.7961962216966792E-07,
          "WeightsUpdate": [
            -2.2452452771208493E-09,
            -2.2452451452858422E-09,
            -2.2452452771208493E-09,
            -3.2722109022768468E-13,
            -6.6770902102544733E-29,
            -2.1974231192353334E-09,
            -2.2452452771208493E-09,
            -2.2452452771208493E-09,
            -2.2450226871729696E-09,
            -6.9870634975947E-23
          ],
          "BiasUpdate": -2.2452452771208493E-09,
          "PreviousWeightsUpdate": [
            -2.246915233550437E-09,
            -2.2452714481086636E-09,
            -2.2469243798496223E-09,
            -3.3655107510417556E-13,
            -1.678972396002011E-12,
            -2.1991195047859334E-09,
            -2.2469321767650542E-09,
            -2.2469416443599759E-09,
            -2.2466923426105728E-09,
            -1.3514767619386175E-14
          ],
          "PreviousBiasUpdate": -2.2469244895219863E-09
        },
        {
          "Bias": -7.6892801784395148,
          "Weights": [
            -1.9632426785055854,
            -1.7299183249699115,
            0.1503298774684946,
            4.2034899253612545,
            -8.8742157428838979,
            -9.7453311036122656,
            -0.24140637212380103,
            3.095955173919668,
            -1.9750668524128974,
            1.8348300034578171
          ],
          "Output": 2.3017801652151605E-09,
          "activationType": 0,
          "Delta": 7.2804445082861548E-11,
          "WeightsUpdate": [
            9.100555635357694E-13,
            9.1005551009965565E-13,
            9.100555635357694E-13,
            1.3263111015194267E-16,
            2.7063961144879572E-32,
            8.9067201498208632E-13,
            9.100555635357694E-13,
            9.100555635357694E-13,
            9.0996534211429734E-13,
            2.8320362472458277E-26
          ],
          "BiasUpdate": 9.100555635357694E-13,
          "PreviousWeightsUpdate": [
            3.0450174362084569E-10,
            9.3420110567981248E-13,
            -3.9023009130517895E-08,
            -3.9022886390614916E-08,
            -3.0180307256802624E-11,
            -2.3888564221932567E-09,
            -3.9012016360358915E-08,
            -3.90190171472958E-08,
            1.0020960261666313E-10,
            -3.9018141613721753E-08
          ],
          "PreviousBiasUpdate": -3.90226618606999E-08
        },
        {
          "Bias": 3.2237106418751256,
          "Weights": [
            -3.7186102026697165,
            0.76227969775857984,
            2.7255604596387588,
            -4.8202125245134448,
            0.27505503487039623,
            -2.7191996543040338,
            0.61905482422805358,
            3.2388319142457935,
            -1.7875455936670035,
            2.2032025893495475
          ],
          "Output": 0.91692004297950169,
          "activationType": 0,
          "Delta": 0.0022269996890453797,
          "WeightsUpdate": [
            2.7837496113067248E-05,
            2.7837494478521329E-05,
            2.7837496113067248E-05,
            4.0570248249258478E-09,
            8.2785375241011464E-25,
            2.7244576868198093E-05,
            2.7837496113067248E-05,
            2.7837496113067248E-05,
            2.7834736349191089E-05,
            8.6628554545035348E-19
          ],
          "BiasUpdate": 2.7837496113067248E-05,
          "PreviousWeightsUpdate": [
            3.2936351095949729E-05,
            2.78487120706205E-05,
            3.2907825787344391E-05,
            4.0159550410435062E-06,
            1.0449972638738469E-06,
            3.2315084029675563E-05,
            3.2915811348048085E-05,
            3.2907893996541958E-05,
            3.2975196340897468E-05,
            3.96956328803037E-06
          ],
          "PreviousBiasUpdate": 3.2907874668444581E-05
        },
        {
          "Bias": 7.44852081340512,
          "Weights": [
            3.8387446845446536,
            1.1338329573677191,
            5.9693666297738863,
            -6.6440595191632239,
            5.1194958506550945,
            -7.94589381512528,
            0.82294762895589346,
            3.2728154615557927,
            1.0696331089978022,
            9.4512215013733485
          ],
          "Output": 0.9999998595107964,
          "activationType": 0,
          "Delta": -2.7317805281297495E-09,
          "WeightsUpdate": [
            -3.4147256601621868E-11,
            -3.41472545965831E-11,
            -3.4147256601621868E-11,
            -4.976606630610804E-15,
            -1.015498462841058E-30,
            -3.3419943860693168E-11,
            -3.4147256601621868E-11,
            -3.4147256601621868E-11,
            -3.414387129840148E-11,
            -1.0626413629523018E-24
          ],
          "BiasUpdate": -3.4147256601621868E-11,
          "PreviousWeightsUpdate": [
            -3.4544227965590866E-11,
            -3.5885617085592451E-11,
            -3.5011264714850167E-11,
            -8.6926374160865539E-13,
            -1.8932270597012836E-12,
            -3.4360032705959262E-11,
            -3.3240339633246316E-11,
            -3.5224570807510177E-11,
            -3.4662291679925885E-11,
            7.5047679936449691E-13
          ],
          "PreviousBiasUpdate": -3.5011268668996188E-11
        },
        {
          "Bias": 2.5877136585070026,
          "Weights": [
            -5.519198476966217,
            8.0403487686548445,
            10.358144433812448,
            -19.399586076296753,
            6.415028468344361,
            -15.477220728185182,
            -4.5881724576460181,
            17.261072704632774,
            6.7042239879633607,
            1.7636626258278758
          ],
          "Output": 0.99999999719839594,
          "activationType": 0,
          "Delta": -6.9417979850545642E-11,
          "WeightsUpdate": [
            -8.6772474813182054E-13,
            -8.6772469718126306E-13,
            -8.6772474813182054E-13,
            -1.2646183514762364E-16,
            -2.5805093456765591E-32,
            -8.4924281641185206E-13,
            -8.6772474813182054E-13,
            -8.6772474813182054E-13,
            -8.67638723318216E-13,
            -2.7003053855238407E-26
          ],
          "BiasUpdate": -8.6772474813182054E-13,
          "PreviousWeightsUpdate": [
            -3.2967210517803431E-08,
            -1.4854160187497034E-12,
            -3.2703729546188718E-08,
            -3.2661691364638865E-08,
            -6.62472974561374E-13,
            -3.2759462462315179E-08,
            -3.2706407693951015E-08,
            -3.2704228498147825E-08,
            -3.2925291636460625E-08,
            -3.2263748741065111E-08
          ],
          "PreviousBiasUpdate": -3.2704091597512154E-08
        }
      ]
    },
    {
      "Neurons": [
        {
          "Bias": 0.26668605097515519,
          "Weights": [
            -0.51076188593382654,
            -3.5470287074071205,
            0.611305842972403,
            -1.0768719786198655,
            4.0287706883141725,
            1.8518322104762066,
            -1.4301701257487793,
            -1.3221248304231321,
            0.87891932502468606,
            1.1200800405027351
          ],
          "Output": 0.63042248278229907,
          "activationType": 0,
          "Delta": -0.022115986983875034,
          "WeightsUpdate": [
            -3.4486783353887956E-05,
            -2.3663140567908371E-11,
            -9.9222983721824858E-05,
            -0.00017363277947188386,
            -1.1020102637587823E-15,
            -1.2124506260139645E-09,
            -6.3632675217050276E-13,
            -0.00025348239669736,
            -0.00027644979846022048,
            -0.000276449836523935
          ],
          "BiasUpdate": -0.00027644983729843795,
          "PreviousWeightsUpdate": [
            -5.6746907061112678E-05,
            -2.36744703965682E-11,
            -0.00010556733192661037,
            -0.00019569416390597468,
            1.76819082517506E-11,
            -1.2133573621150752E-09,
            8.5587344630675984E-08,
            -0.00026288067724323307,
            -0.00029871369877128669,
            -0.000283296584114147
          ],
          "PreviousBiasUpdate": -0.00029871373852112895
        }
      ],
      "<Neurons>k__BackingField": [
        {
          "Bias": 0.26668605097515519,
          "Weights": [
            -0.51076188593382654,
            -3.5470287074071205,
            0.611305842972403,
            -1.0768719786198655,
            4.0287706883141725,
            1.8518322104762066,
            -1.4301701257487793,
            -1.3221248304231321,
            0.87891932502468606,
            1.1200800405027351
          ],
          "Output": 0.63042248278229907,
          "activationType": 0,
          "Delta": -0.022115986983875034,
          "WeightsUpdate": [
            -3.4486783353887956E-05,
            -2.3663140567908371E-11,
            -9.9222983721824858E-05,
            -0.00017363277947188386,
            -1.1020102637587823E-15,
            -1.2124506260139645E-09,
            -6.3632675217050276E-13,
            -0.00025348239669736,
            -0.00027644979846022048,
            -0.000276449836523935
          ],
          "BiasUpdate": -0.00027644983729843795,
          "PreviousWeightsUpdate": [
            -5.6746907061112678E-05,
            -2.36744703965682E-11,
            -0.00010556733192661037,
            -0.00019569416390597468,
            1.76819082517506E-11,
            -1.2133573621150752E-09,
            8.5587344630675984E-08,
            -0.00026288067724323307,
            -0.00029871369877128669,
            -0.000283296584114147
          ],
          "PreviousBiasUpdate": -0.00029871373852112895
        }
      ]
    }
  ],
  "<layers>k__BackingField": [
    {
      "Neurons": [
        {
          "Bias": 1.5578300284402489,
          "Weights": [
            5.3426595411214759,
            4.3140622715012089,
            4.2976353486274084,
            7.40592124003641,
