{
  "layers": [
    {
      "Neurons": [
        {
          "Bias": 4.0481683365933554,
          "Weights": [
            -5.8570658975989911,
            -2.9563017878395756,
            0.11366005219258149,
            -4.9457600471816638,
            4.2133286877115257,
            0.45090836952136515,
            -4.5412001568047824,
            4.3586160522628727,
            -5.5718437456569472,
            1.6867336859578907,
            -1.9021041574581521,
            -4.3939594342362644,
            4.9984202169045018,
            -5.07616452450267,
            0.86355843534264365,
            -3.6168252149819002,
            -6.3115964042269219,
            -3.0593332655293364,
            5.6504013532080792,
            -5.4550508271314229,
            1.7593222549813441,
            -2.56090366032449,
            -5.0916861219163465,
            -3.827906281168671,
            0.46200009631507494,
            4.023298621201751,
            -0.59930119812062255,
            -5.153083561510071,
            -0.62600764827299382,
            -2.7145841348827782,
            -2.3519778988426796,
            -1.0642514292296699,
            0.39642126004556161
          ],
          "Output": 5.1212698408167094E-11,
          "activationType": 0,
          "Delta": -7.57353107424418E-16,
          "WeightsUpdate": [
            -9.4669138428052245E-18,
            0.0,
            9.4669138428052245E-18,
            -9.4669138428052245E-18,
            -9.4669138428052245E-18,
            1.8933827685610449E-17,
            0.0,
            9.4669138428052245E-18,
            1.8933827685610449E-17,
            9.4669138428052245E-18,
            0.0,
            0.0,
            0.0,
            9.4669138428052245E-18,
            0.0,
            -1.8933827685610449E-17,
            -9.4669138428052245E-18,
            0.0,
            -9.4669138428052245E-18,
            -9.4669138428052245E-18,
            -9.4669138428052245E-18,
            -9.4669138428052245E-18,
            -9.4669138428052245E-18,
            -9.4669138428052245E-18,
            0.0,
            0.0,
            0.0,
            -9.4669138428052245E-18,
            9.4669138428052245E-18,
            -9.4669138428052245E-18,
            0.0,
            0.0,
            0.0
          ],
          "BiasUpdate": -9.4669138428052245E-18,
          "PreviousWeightsUpdate": [
            8.1991523352669989E-12,
            7.557625573950245E-14,
            9.1734271973937526E-12,
            -1.5464010512010244E-16,
            -9.758617804693841E-13,
            7.5592468751115748E-14,
            -9.32484793572492E-12,
            1.0376286068410988E-11,
            -1.5852625572065348E-15,
            -1.0514214442638401E-12,
            -1.4006225423740734E-16,
            -1.4089240148751068E-16,
            -7.5713958978208519E-14,
            9.32471699396812E-12,
            1.5114466671069989E-13,
            -1.3859223108502099E-17,
            -1.6114099614669998E-15,
            -4.6494270774171814E-18,
            9.3988151654707919E-12,
            -7.7182600304305623E-14,
            -2.9740872499452646E-16,
            9.3214918708597227E-12,
            -1.1798856843817348E-17,
            1.0498172057830873E-12,
            1.0376136092196694E-11,
            -1.0512857893013324E-12,
            -2.3026835669400144E-18,
            9.4020162745530618E-12,
            8.19918135725893E-12,
            1.0376126691059713E-11,
            -1.8651016890735216E-11,
            9.2459278096960337E-12,
            -3.3513335886360497E-15
          ],
          "PreviousBiasUpdate": 1.0298806514022993E-11
        },
        {
          "Bias": -5.0572407871356369,
          "Weights": [
            -2.5618304794866669,
            1.1984565491488572,
            -4.6491539065834973,
            -6.64876266659323,
            -4.34178903959263,
            2.5320135190150852,
            1.4100388559787802,
            -2.7883826780018159,
            2.8060741531893139,
            5.4918694747411134,
            4.2686786334174016,
            1.7938238610014208,
            -1.0778445722905823,
            0.24365262689745887,
            6.7471894642701313,
            5.3933549242366592,
            -4.0468159805709325,
            5.5736317974846665,
            3.593484079193404,
            1.3962553330330769,
            4.815909629883758,
            5.2010323263234257,
            -3.24476687817067,
            1.4556490922403726,
            3.6909669482973348,
            6.0545337264102477,
            -4.9365498545741691,
            -4.7599049884584046,
            1.2357678071614737,
            2.4480140012647058,
            -2.1358635587697208,
            -4.3618679568167487,
            3.3422731484359267
          ],
          "Output": 1.4034398419857535E-05,
          "activationType": 0,
          "Delta": 1.3229550870633169E-10,
          "WeightsUpdate": [
            1.6536938588291461E-12,
            0.0,
            -1.6536938588291461E-12,
            1.6536938588291461E-12,
            1.6536938588291461E-12,
            -3.3073877176582922E-12,
            0.0,
            -1.6536938588291461E-12,
            -3.3073877176582922E-12,
            -1.6536938588291461E-12,
            0.0,
            0.0,
            0.0,
            -1.6536938588291461E-12,
            0.0,
            3.3073877176582922E-12,
            1.6536938588291461E-12,
            0.0,
            1.6536938588291461E-12,
            1.6536938588291461E-12,
            1.6536938588291461E-12,
            1.6536938588291461E-12,
            1.6536938588291461E-12,
            1.6536938588291461E-12,
            0.0,
            0.0,
            0.0,
            1.6536938588291461E-12,
            -1.6536938588291461E-12,
            1.6536938588291461E-12,
            0.0,
            0.0,
            0.0
          ],
          "BiasUpdate": 1.6536938588291461E-12,
          "PreviousWeightsUpdate": [
            -4.203681776754748E-10,
            2.9323100425825591E-15,
            -4.2367613950898626E-10,
            -4.1983056559435431E-10,
            1.6601045997990953E-12,
            -3.3074381937632061E-12,
            -4.20946299783822E-10,
            4.1928898533425385E-10,
            -3.3074618926106021E-12,
            -1.6502133696201888E-12,
            -4.2148138219900395E-10,
            -4.2148726866427407E-10,
            -4.214843286577781E-10,
            -2.1918171366825555E-12,
            6.7234696876979291E-18,
            3.3103196224092192E-12,
            1.6537120947253754E-12,
            1.7698574495116563E-17,
            4.2260288559678356E-10,
            1.6537505453729704E-12,
            -8.4131494104875277E-10,
            1.1156038789594345E-12,
            1.653700668157301E-12,
            1.6501854040671756E-12,
            -5.4159378633435033E-13,
            4.2148784184271573E-10,
            -4.6245014842520354E-17,
            4.2259992405910412E-10,
            -4.2366960734251205E-10,
            1.1119982134335164E-12,
            1.0761126440443013E-12,
            -5.3804057239338448E-13,
            -4.2148427811952721E-10
          ],
          "PreviousBiasUpdate": -4.2036930509760051E-10
        },
        {
          "Bias": -3.0440828172728898,
          "Weights": [
            5.2228209150093283,
            6.2491287071352648,
            -3.36706155593597,
            5.9300734590549107,
            -6.0128933806364628,
            -1.4700557638110812,
            0.81379213294932728,
            -3.1255861133872234,
            -0.77463709885351884,
            -3.4276500851327518,
            -4.1264750138138595,
            -5.7549404354993623,
            3.2756643090445867,
            5.2241466629070121,
            -3.9169639386180948,
            0.58059873784241067,
            -2.4117296241048254,
            1.5818205995768475,
            0.014791031922631296,
            -5.7164550336924513,
            4.7606124590676266,
            -0.73679263117323712,
            -2.086299848274185,
            0.97051999767542785,
            -4.1906455550232335,
            -3.705686535643264,
            0.862693354098874,
            -0.61036751580152893,
            3.846464271031611,
            5.9195415020644191,
            2.1047643599047907,
            4.469240644871479,
            -6.3141651360221394
          ],
          "Output": 0.99983344335661151,
          "activationType": 0,
          "Delta": -3.4231356832869568E-11,
          "WeightsUpdate": [
            -4.2789196041086961E-13,
            0.0,
            4.2789196041086961E-13,
            -4.2789196041086961E-13,
            -4.2789196041086961E-13,
            8.5578392082173923E-13,
            0.0,
            4.2789196041086961E-13,
            8.5578392082173923E-13,
            4.2789196041086961E-13,
            0.0,
            0.0,
            0.0,
            4.2789196041086961E-13,
            0.0,
            -8.5578392082173923E-13,
            -4.2789196041086961E-13,
            0.0,
            -4.2789196041086961E-13,
            -4.2789196041086961E-13,
            -4.2789196041086961E-13,
            -4.2789196041086961E-13,
            -4.2789196041086961E-13,
            -4.2789196041086961E-13,
            0.0,
            0.0,
            0.0,
            -4.2789196041086961E-13,
            4.2789196041086961E-13,
            -4.2789196041086961E-13,
            0.0,
            0.0,
            0.0
          ],
          "BiasUpdate": -4.2789196041086961E-13,
          "PreviousWeightsUpdate": [
            1.7676767509401818E-11,
            -1.3697621422973679E-12,
            1.7534455563843654E-11,
            -4.1303360010085077E-13,
            -2.1751602871209E-12,
            8.5263587829786483E-13,
            -1.7097320431292535E-11,
            1.7895548206404895E-11,
            8.5100282340799218E-13,
            5.2879473567793136E-14,
            -1.3615028084406528E-12,
            1.3814013809895893E-12,
            3.2927310800289378E-15,
            1.7530381347866887E-11,
            3.4508115662787848E-15,
            -2.2272832286018655E-12,
            -4.2544383408474523E-13,
            4.6686581547775085E-17,
            1.5294758091199073E-11,
            -4.2726239347558854E-13,
            -4.0792230591576745E-13,
            1.6677045798189329E-11,
            -4.2786886036875777E-13,
            -5.2798148051760476E-14,
            1.7482468162073175E-11,
            -3.8509055520487118E-13,
            -2.3668017712470366E-15,
            1.6666281056051866E-11,
            1.5799275913045661E-11,
            1.7049795909782662E-11,
            -3.42121729460304E-11,
            1.7103142369211122E-11,
            9.97315355052852E-15
          ],
          "PreviousBiasUpdate": 1.5688993189197309E-11
        },
        {
          "Bias": -0.839350622487854,
          "Weights": [
            0.85135890445266882,
            4.3808832900379793,
            -0.23602356489251508,
            -3.1771963861369681,
            4.7799702644833175,
            1.8315316733804015,
            7.9932413813894216,
            1.9173162043873782,
            -1.1937877342671392,
            6.7301108117487516,
            -2.2408355427584015,
            2.8844153187900572,
            -0.17647638557943734,
            -5.8478633432577638,
            -5.6917980284999778,
            5.2520521124370427,
            3.305439168441612,
            0.069694270794061153,
            2.2385538806695746,
            -1.4547266928467009,
            -4.267730532954439,
            -1.7791097144308903,
            2.4714664082964375,
            3.0461758987300063,
            3.1100133610731469,
            5.100522780840981,
            3.798187236903531,
            -2.7584696649227234,
            -0.20581898802518916,
            0.930593899759053,
            -1.268214022046172,
            -2.2814310429823674,
            -4.9848734732429216
          ],
          "Output": 0.99996348934962653,
          "activationType": 0,
          "Delta": 4.6286537380035924E-10,
          "WeightsUpdate": [
            5.7858171725044907E-12,
            0.0,
            -5.7858171725044907E-12,
            5.7858171725044907E-12,
            5.7858171725044907E-12,
            -1.1571634345008981E-11,
            0.0,
            -5.7858171725044907E-12,
            -1.1571634345008981E-11,
            -5.7858171725044907E-12,
            0.0,
            0.0,
            0.0,
            -5.7858171725044907E-12,
            0.0,
            1.1571634345008981E-11,
            5.7858171725044907E-12,
            0.0,
            5.7858171725044907E-12,
            5.7858171725044907E-12,
            5.7858171725044907E-12,
            5.7858171725044907E-12,
            5.7858171725044907E-12,
            5.7858171725044907E-12,
            0.0,
            0.0,
            0.0,
            5.7858171725044907E-12,
            -5.7858171725044907E-12,
            5.7858171725044907E-12,
            0.0,
            0.0,
            0.0
          ],
          "BiasUpdate": 5.7858171725044907E-12,
          "PreviousWeightsUpdate": [
            8.0269621475584112E-12,
            -2.0006333682651832E-12,
            -1.5454961423693243E-12,
            5.7879603252585841E-12,
            3.7848770757065987E-12,
            -1.3572077763747589E-11,
            -2.3723659083841503E-13,
            -5.5484438940175063E-12,
            -1.1571723861400032E-11,
            -5.7854342555119846E-12,
            9.1359209916537248E-16,
            2.505509544868093E-15,
            2.0008472484248857E-12,
            -5.5467859801292239E-12,
            -4.0000172968650123E-12,
            1.1570840123498513E-11,
            5.78624846427888E-12,
            -1.5369969214237563E-18,
            4.0219817186451272E-12,
            7.7858223121177308E-12,
            5.7892336014434193E-12,
            6.0254446362935313E-12,
            5.785816373386209E-12,
            5.7858646850027672E-12,
            2.3951802945752263E-13,
            -1.7601745170344249E-15,
            8.4084925783030413E-17,
            4.0227846527222306E-12,
            -3.5453897563786066E-12,
            6.025335139440568E-12,
            -4.7798106051192123E-13,
            2.2391154162802881E-12,
            1.7839282713957909E-15
          ],
          "PreviousBiasUpdate": 8.02616656077402E-12
        },
        {
          "Bias": 4.0325152639006721,
          "Weights": [
            -1.7731936564323758,
            -6.0341876395263823,
            -6.76739330483933,
            -6.3271786055929065,
            4.5483867827365465,
            -6.8984157398740855,
            -4.4311689326698378,
            -1.5201425450289074,
            -3.9765812225537149,
            -0.39244777700892092,
            -3.9169990834622368,
            2.4152808485064541,
            4.2098199717315525,
            -2.2777876147629632,
            -1.621416328758172,
            4.0987095688664583,
            -5.2673690321221232,
            -3.6754018983015819,
            -4.196806038388428,
            -0.83754500423198852,
            -3.4398583920914452,
            -4.2513178396641269,
            -0.795242886887664,
            4.4760047918628576,
            -1.9964906237834128,
            3.350856922836384,
            3.683189127692009,
            3.3986950322566165,
            -5.317319816424452,
            4.1688825188404586,
            -0.37072829761399484,
            -6.09155247119398,
            2.4648521691913263
          ],
          "Output": 1.0,
          "activationType": 0,
          "Delta": 0.0,
          "WeightsUpdate": [
            0.0,
            0.0,
            0.0,
            0.0,
            0.0,
            0.0,
            0.0,
            0.0,
            0.0,
            0.0,
            0.0,
            0.0,
            0.0,
            0.0,
            0.0,
            0.0,
            0.0,
            0.0,
            0.0,
            0.0,
            0.0,
            0.0,
            0.0,
            0.0,
            0.0,
            0.0,
            0.0,
            0.0,
            0.0,
            0.0,
            0.0,
            0.0,
            0.0
          ],
          "BiasUpdate": 0.0,
          "PreviousWeightsUpdate": [
            2.4491632208103504E-11,
            -7.2307332427869368E-14,
            1.4464072672749036E-13,
            2.4419182338146349E-11,
            -7.1763689403495108E-14,
            -7.223145577546295E-14,
            -2.4419385332326253E-11,
            2.4417537839387502E-11,
            -7.8602118158900754E-16,
            2.4419206643298523E-11,
            -4.5469779786462421E-16,
            -4.883765908186272E-11,
            -2.434640636962148E-11,
            3.3562853267337588E-17,
            2.4274354556781319E-11,
            -2.4419267580511468E-11,
            -2.4418966093888918E-11,
            4.8837634414142056E-11,
            -2.4491158386280877E-11,
            -4.8765004700965719E-11,
            2.4418814575629028E-11,
            -2.4418677176171341E-11,
            2.4418567414580614E-11,
            -2.4419629147691344E-11,
            -6.59072040229545E-16,
            5.7748234809015556E-16,
            2.4418537814461855E-11,
            2.4346671419538891E-11,
            -2.434566576696465E-11,
            -1.200702587004839E-15,
            -2.4418961786067092E-11,
            -2.434664218846367E-11,
            -4.1797446397675911E-18
          ],
          "PreviousBiasUpdate": 2.4490274186052039E-11
        },
        {
          "Bias": 4.1443891851026411,
          "Weights": [
            3.276683988516206,
            -6.9913070196883185,
            5.0797069435004207,
            -1.0138829236121978,
            1.7073564519800055,
            1.1428011792546948,
            -4.2810576037746539,
            1.6770289914706873,
            -4.45793600443859,
            -2.1088666786308452,
            1.114044430846433,
            6.2458471598396041,
            5.6683038300809079,
            -0.30720564341195467,
            3.7378400636871825,
            0.91522186910862413,
            -1.5609889707257594,
            -3.1948660270677283,
            -3.325732719259574,
            1.6270054562023919,
            -2.2955143416623875,
            -3.8176996854289862,
            3.972267841314451,
            -5.1097821320297525,
            3.4869178007135027,
            -4.74018837590805,
            -2.5673795896386182,
            -3.2318956571719766,
            -1.3269591454890683,
            -1.3700552816710998,
            6.6575534903076159,
            -6.7436333436877014,
            -3.4290275629048179
          ],
          "Output": 0.17496492917182829,
          "activationType": 0,
          "Delta": 1.2775753487354664E-06,
          "WeightsUpdate": [
            1.596969185919333E-08,
            0.0,
            -1.596969185919333E-08,
            1.596969185919333E-08,
            1.596969185919333E-08,
            -3.1939383718386661E-08,
            0.0,
            -1.596969185919333E-08,
            -3.1939383718386661E-08,
            -1.596969185919333E-08,
            0.0,
            0.0,
            0.0,
            -1.596969185919333E-08,
            0.0,
            3.1939383718386661E-08,
            1.596969185919333E-08,
            0.0,
            1.596969185919333E-08,
            1.596969185919333E-08,
            1.596969185919333E-08,
            1.596969185919333E-08,
            1.596969185919333E-08,
            1.596969185919333E-08,
            0.0,
            0.0,
            0.0,
            1.596969185919333E-08,
            -1.596969185919333E-08,
            1.596969185919333E-08,
            0.0,
            0.0,
            0.0
          ],
          "BiasUpdate": 1.596969185919333E-08,
          "PreviousWeightsUpdate": [
            1.5960579812157297E-08,
            -1.5177868137213295E-17,
            -1.5969658697756046E-08,
            1.5960562348442649E-08,
            1.5969676114958236E-08,
            -3.19393878353068E-08,
            9.09219692015662E-12,
            -1.5978780687688553E-08,
            -3.1939391955055709E-08,
            -1.5978841203008826E-08,
            -2.8627417602424657E-17,
            1.8267248172856223E-11,
            9.13360810962178E-12,
            -1.5969658683812369E-08,
            -9.1336164464957143E-12,
            3.1948517320243873E-08,
            1.5978825478646113E-08,
            -1.8267238907306717E-11,
            1.5978862764445663E-08,
            1.5987963217139373E-08,
            1.5960558217972396E-08,
            1.5978858653954425E-08,
            1.59605582397327E-08,
            1.5978837083488161E-08,
            4.88995608643991E-14,
            -1.1594083936939755E-14,
            -9.1377388142052166E-12,
            1.5960595541017102E-08,
            -1.5960528459414969E-08,
            1.5969732519887817E-08,
            9.0549153342863691E-12,
            9.1709114958733431E-12,
            -1.0736295155669532E-17
          ],
          "PreviousBiasUpdate": 1.5960602991025629E-08
        },
        {
          "Bias": -5.9239160352331055,
          "Weights": [
            2.1347576682349878,
            -1.7274631064126715,
            -4.7245095351718085,
            1.2488059760641372,
            4.4387998990656241,
            4.2531348814866794,
            -2.0856462620312182,
            -1.8764751363465537,
            4.0015893322517009,
            -3.3796281276888771,
            -1.5863096543122539,
            -1.2318925937511833,
            5.5744883955532565,
            -0.65850485402819,
            -4.0467150917211354,
            0.66194512588094345,
            -1.6093846358922874,
            -4.1576372780700481,
            -7.1211009550665683,
            -4.2988098716029608,
            1.914914984821297,
            -0.80255532557240861,
            -3.1339746831786113,
            2.7045933588326605,
            3.6529495281865674,
            -2.8563205755991796,
            -3.434394476276621,
            5.7365078145580091,
            -2.9162156051669097,
            2.783307606607941,
            -3.2426556102410493,
            1.0765572943832726,
            6.3633181433331352
          ],
          "Output": 0.027698730783698441,
          "activationType": 0,
          "Delta": -7.99665204830287E-09,
          "WeightsUpdate": [
            -9.9958150603785872E-11,
            0.0,
            9.9958150603785872E-11,
            -9.9958150603785872E-11,
            -9.9958150603785872E-11,
            1.9991630120757174E-10,
            0.0,
            9.9958150603785872E-11,
            1.9991630120757174E-10,
            9.9958150603785872E-11,
            0.0,
            0.0,
            0.0,
            9.9958150603785872E-11,
            0.0,
            -1.9991630120757174E-10,
            -9.9958150603785872E-11,
            0.0,
            -9.9958150603785872E-11,
            -9.9958150603785872E-11,
            -9.9958150603785872E-11,
            -9.9958150603785872E-11,
            -9.9958150603785872E-11,
            -9.9958150603785872E-11,
            0.0,
            0.0,
            0.0,
            -9.9958150603785872E-11,
            9.9958150603785872E-11,
            -9.9958150603785872E-11,
            0.0,
            0.0,
            0.0
          ],
          "BiasUpdate": -9.9958150603785872E-11,
          "PreviousWeightsUpdate": [
            -7.0664358597388678E-10,
            2.3748585812178411E-15,
            -3.7313331451420232E-10,
            -2.5906479438790908E-10,
            -1.0013386823352985E-10,
            1.9991868513635083E-10,
            5.5511308060503209E-10,
            -4.5497680657456937E-10,
            1.99921358519127E-10,
            -3.3633145552908838E-11,
            -2.5693428829899612E-11,
            2.4113297578636818E-10,
            1.077173992515868E-10,
            -3.4743513640098234E-10,
            -1.334084556183828E-10,
            -6.6503096422546585E-11,
            3.3460089758650094E-11,
            -2.6682640697607675E-10,
            -3.882374023303814E-10,
            1.6687090896769916E-10,
            -2.8475821434529892E-10,
            -4.1392816080295684E-10,
            -2.3337135397519708E-10,
            3.3638192596189822E-11,
            -4.4721519410317474E-10,
            2.5515327289497585E-11,
            -1.3341319341828356E-10,
            -6.5507388400219977E-10,
            -2.3990089576762808E-10,
            -5.4717332436868708E-10,
            1.0282048443124082E-09,
            -3.1397239402860647E-10,
            -2.5683356710368817E-11
          ],
          "PreviousBiasUpdate": -7.0627730422564733E-10
        },
        {
          "Bias": 5.004308658198525,
          "Weights": [
            2.4634296200560444,
            -2.9622420109469063,
            -2.074833125394882,
            2.1832676327233691,
            -1.3690718261946346,
            -2.7302093218391112,
            -1.5986925690029976,
            3.8269346742989327,
            -4.5480673648831855,
            -0.96935831959491825,
            1.4984032521531665,
            -1.6795062808020658,
            -3.6750123774210817,
            1.9398392647595439,
            -1.8156209797106868,
            3.6196272236181248,
            6.5251675540098075,
            1.9124146999139919,
            -5.0842404871198434,
            1.7333158057675131,
            -2.5071521377773038,
            -5.9158021304532742,
            -5.8787783341234574,
            -3.5801287693389914,
            2.9520166208190965,
            -1.5728152497258447,
            1.788204576695563,
            -4.0476479958069476,
            -6.1538441924752831,
            -3.4711927854668443,
            -7.8784199404824431,
            4.2740998665617633,
            0.39432023466185229
          ],
          "Output": 0.99998740936047448,
          "activationType": 0,
          "Delta": 2.0158407221463275E-11,
          "WeightsUpdate": [
            2.5198009026829094E-13,
            0.0,
            -2.5198009026829094E-13,
            2.5198009026829094E-13,
            2.5198009026829094E-13,
            -5.0396018053658187E-13,
            0.0,
            -2.5198009026829094E-13,
            -5.0396018053658187E-13,
            -2.5198009026829094E-13,
            0.0,
            0.0,
            0.0,
            -2.5198009026829094E-13,
            0.0,
            5.0396018053658187E-13,
            2.5198009026829094E-13,
            0.0,
            2.5198009026829094E-13,
            2.5198009026829094E-13,
            2.5198009026829094E-13,
            2.5198009026829094E-13,
            2.5198009026829094E-13,
            2.5198009026829094E-13,
            0.0,
            0.0,
            0.0,
            2.5198009026829094E-13,
            -2.5198009026829094E-13,
            2.5198009026829094E-13,
            0.0,
            0.0,
            0.0
          ],
          "BiasUpdate": 2.5198009026829094E-13,
          "PreviousWeightsUpdate": [
            -3.0402794381216433E-10,
            -5.6485337490102474E-15,
            -3.04686875690763E-10,
            -3.0422272278387343E-10,
            2.4632386652158605E-13,
            -5.0396008171451589E-13,
            -3.045145109362025E-10,
            3.0426253823517158E-10,
            -6.5329025286991452E-13,
            -2.5198747922826439E-13,
            -3.0448035179920812E-10,
            -3.0446905455244557E-10,
            -3.0447470356207033E-10,
            -2.1217233192459732E-13,
            1.9281238340952194E-19,
            4.9831183883807508E-13,
            1.0264972036310712E-13,
            3.0199617945017525E-19,
            3.0461151240445217E-10,
            1.0264961744911258E-13,
            -6.0869742624236767E-10,
            -6.8722969698172066E-15,
            2.5198009088398377E-13,
            1.0265740726106786E-13,
            3.981485332164581E-14,
            3.0447469577292021E-10,
            4.0679886338474877E-21,
            3.0491582118804969E-10,
            -3.0454320154203873E-10,
            2.9179524435095743E-13,
            -2.28945304629285E-13,
            -2.5885248540312509E-13,
            -3.047733630211012E-10
          ],
          "PreviousBiasUpdate": -3.0433788641740453E-10
        },
        {
          "Bias": 1.4316494102174422,
          "Weights": [
            2.3292465067086967,
            1.9024232546772628,
            -3.230836855445725,
            0.83005162825805578,
            3.9960966927810539,
            4.0931564049960834,
            3.1386852622245103,
            4.33914650087689,
            -2.5631976159305823,
            6.3513796419570934,
            7.6331145236140472,
            0.21085396169223944,
            -4.6623415152336145,
            -1.6581153438909886,
            -0.3104516700823306,
            -1.6641614049011246,
            5.8582416444439582,
            0.16475932203489302,
            -3.3672922058303771,
            4.9289331674739492,
            3.2315523336634162,
            2.6463248313825605,
            -1.1824322600965751,
            5.4091843027002184,
            -4.9046901289351732,
            -5.2572495181207488,
            1.9808387527766009,
            3.5737129054659937,
            3.0276019993131227,
            -4.6276624552925236,
            -1.8590679295927008,
            2.7563695011497265,
            5.2585642479441024
          ],
          "Output": 0.99994673565696712,
          "activationType": 0,
          "Delta": 2.2501044881745062E-10,
          "WeightsUpdate": [
            2.8126306102181329E-12,
            0.0,
            -2.8126306102181329E-12,
            2.8126306102181329E-12,
            2.8126306102181329E-12,
            -5.6252612204362657E-12,
            0.0,
            -2.8126306102181329E-12,
            -5.6252612204362657E-12,
            -2.8126306102181329E-12,
            0.0,
            0.0,
            0.0,
            -2.8126306102181329E-12,
            0.0,
            5.6252612204362657E-12,
            2.8126306102181329E-12,
            0.0,
            2.8126306102181329E-12,
            2.8126306102181329E-12,
            2.8126306102181329E-12,
            2.8126306102181329E-12,
            2.8126306102181329E-12,
            2.8126306102181329E-12,
            0.0,
            0.0,
            0.0,
            2.8126306102181329E-12,
            -2.8126306102181329E-12,
            2.8126306102181329E-12,
            0.0,
            0.0,
            0.0
          ],
          "BiasUpdate": 2.8126306102181329E-12,
          "PreviousWeightsUpdate": [
            -4.2967670059912725E-11,
            -1.7190497930006903E-13,
            -5.0858117355326856E-11,
            5.2488382527869713E-12,
            2.641560346378235E-12,
            -5.7965114912579825E-12,
            4.59536717437626E-11,
            -4.8765246277288162E-11,
            -5.6240004836152651E-12,
            -3.7495819015995477E-13,
            -2.3998125188904481E-17,
            -4.8736508464644516E-12,
            -2.2649565604615221E-12,
            -5.1201879008117421E-11,
            2.0930760118455349E-12,
            3.1883995387216546E-12,
            3.757931683310031E-13,
            4.8736756627344364E-12,
            -4.818599099906419E-11,
            -1.8897942866056281E-12,
            5.2494683812484679E-12,
            -4.8013455254729664E-11,
            5.249468114090989E-12,
            3.7558837225538634E-13,
            -4.8390083374352234E-11,
            2.0434618747147691E-16,
            2.437467722452556E-12,
            -4.3312291157309953E-11,
            -5.3467915608467812E-11,
            -4.5576192223220541E-11,
            9.4343550063193136E-11,
            -5.0654835496900041E-11,
            2.8943412609862697E-19
          ],
          "PreviousBiasUpdate": -4.2968127958546212E-11
        },
        {
          "Bias": 1.4251450232739451,
          "Weights": [
            -5.3040267602815625,
            1.7594878794453617,
            2.1009292397576469,
            0.028587030031679027,
            3.3878252427253566,
            -2.8382467509601375,
            -3.3661664741529,
            -2.9134871748777971,
            1.1598654280641929,
            -1.945388841913684,
            -1.5890696574060157,
            -2.4994363799460193,
            -5.1015386167719594,
            -2.0572926426303617,
            5.4769595549600583,
            0.52488943163670443,
            -4.6502403904285767,
            -1.7387936359794858,
            -1.9054942616134929,
            0.9314796270223461,
            -5.8547446814298238,
            -4.4567775221010351,
            -3.0258471277017351,
            -4.6576651685047938,
            -0.29708692982487556,
            1.2077287535044887,
            -6.5496754118423528,
            3.9423085880013313,
            -6.7713519487973386,
            -3.9427673069054237,
            -2.9186715762237712,
            -4.20884907255032,
            0.11996820670139917
          ],
          "Output": 0.00030677632677751404,
          "activationType": 0,
          "Delta": -1.5606432945456702E-09,
          "WeightsUpdate": [
            -1.950804118182088E-11,
            0.0,
            1.950804118182088E-11,
            -1.950804118182088E-11,
            -1.950804118182088E-11,
            3.9016082363641759E-11,
            0.0,
            1.950804118182088E-11,
            3.9016082363641759E-11,
            1.950804118182088E-11,
            0.0,
            0.0,
            0.0,
            1.950804118182088E-11,
            0.0,
            -3.9016082363641759E-11,
            -1.950804118182088E-11,
            0.0,
            -1.950804118182088E-11,
            -1.950804118182088E-11,
            -1.950804118182088E-11,
            -1.950804118182088E-11,
            -1.950804118182088E-11,
            -1.950804118182088E-11,
            0.0,
            0.0,
            0.0,
            -1.950804118182088E-11,
            1.950804118182088E-11,
            -1.950804118182088E-11,
            0.0,
            0.0,
            0.0
          ],
          "BiasUpdate": -1.950804118182088E-11,
          "PreviousWeightsUpdate": [
            -1.8696108614769475E-11,
            6.6828556777999451E-14,
            1.9509078090388875E-11,
            -1.9507679227441614E-11,
            -1.8563489305947923E-11,
            3.9015720859702643E-11,
            -1.3984158291612469E-15,
            1.8631715888246309E-11,
            3.9016082361928164E-11,
            2.0386126451568368E-11,
            6.6828508246970723E-14,
            -6.6828593961636866E-14,
            -7.234534298001718E-16,
            1.9509439593535666E-11,
            3.1558425803494308E-20,
            -3.8949253469270341E-11,
            -1.9507680177830168E-11,
            5.3315788456253986E-19,
            -1.944017579916113E-11,
            -1.9508041712604633E-11,
            -1.9508041152036662E-11,
            -1.9506281328218027E-11,
            -1.9508041149142547E-11,
            -2.0385764976781206E-11,
            -8.7596423595178149E-13,
            8.7772376163490082E-13,
            3.0095014281688789E-20,
            -1.9507004211881133E-11,
            2.0454353334218536E-11,
            -2.038400498075628E-11,
            -2.796439364867646E-15,
            1.3983270453974572E-15,
            3.394496159722352E-19
          ],
          "PreviousBiasUpdate": -2.0317176027482706E-11
        },
        {
          "Bias": 0.19240315149143855,
          "Weights": [
            -2.451563981040207,
            -0.88471907095014257,
            2.7515744321266191,
            0.62266924840400029,
            2.4506192895888343,
            6.8100743067500247,
            3.8932140374398774,
            -4.956335355532473,
            6.386717134459758,
            -4.120200812276412,
            2.7072121000696669,
            2.9312349885947171,
            3.7998925413117668,
            -2.64590250908343,
            -6.0636280588793676,
            -5.0298258331596255,
            -3.3596448554302993,
            4.0305014496050795,
            -4.68954067884182,
            -1.5165260932920033,
            -0.67345137194756755,
            7.6676300387489347,
            -0.22960480327156682,
            2.05128221569233,
            4.936043506685003,
            -6.9309259483379835,
            -2.5995440182715619,
            -3.4259376594370456,
            -3.2768688002324859,
            1.6056134614039903,
            2.7973164475828347,
            -4.4971897554463975,
            2.5441378885025081
          ],
          "Output": 5.3093402150721987E-12,
          "activationType": 0,
          "Delta": -9.978919426777826E-20,
          "WeightsUpdate": [
            -1.2473649283472283E-21,
            0.0,
            1.2473649283472283E-21,
            -1.2473649283472283E-21,
            -1.2473649283472283E-21,
            2.4947298566944566E-21,
            0.0,
            1.2473649283472283E-21,
            2.4947298566944566E-21,
            1.2473649283472283E-21,
            0.0,
            0.0,
            0.0,
            1.2473649283472283E-21,
            0.0,
            -2.4947298566944566E-21,
            -1.2473649283472283E-21,
            0.0,
            -1.2473649283472283E-21,
            -1.2473649283472283E-21,
            -1.2473649283472283E-21,
            -1.2473649283472283E-21,
            -1.2473649283472283E-21,
            -1.2473649283472283E-21,
            0.0,
            0.0,
            0.0,
            -1.2473649283472283E-21,
            1.2473649283472283E-21,
            -1.2473649283472283E-21,
            0.0,
            0.0,
            0.0
          ],
          "BiasUpdate": -1.2473649283472283E-21,
          "PreviousWeightsUpdate": [
            3.0717541965544204E-14,
            -1.2653701676281208E-14,
            4.3575299054389924E-14,
            -1.8261905118264645E-14,
            -1.2480027171269906E-14,
            5.595940716104073E-15,
            -2.7132487760849072E-17,
            -3.0845774846779541E-17,
            5.7804706196925488E-17,
            -1.8261560704883632E-14,
            1.3401621052107342E-16,
            -1.4663701074652922E-16,
            4.9201996222718381E-14,
            -3.7052867575583624E-17,
            -2.5337916050762548E-14,
            1.2753545219749798E-16,
            -1.8274346612975806E-14,
            1.2381850125026936E-17,
            5.6287863508536015E-15,
            1.2659581034790996E-14,
            6.4589410285874336E-18,
            -1.8427022695349065E-14,
            6.309862145450038E-18,
            -6.4152308131313029E-18,
            -1.8305192088054883E-14,
            1.03681784644524E-19,
            -5.1415754465029447E-17,
            5.5072438885904941E-15,
            -5.5629854753356447E-15,
            -1.8305136098751986E-14,
            9.9031484978750471E-18,
            1.2570945270789504E-14,
            -5.7892887373626837E-17
          ],
          "PreviousBiasUpdate": -5.4349851319280546E-15
        },
        {
          "Bias": -3.4042390465547814,
          "Weights": [
            -6.7702666481930862,
            -3.7063932783024893,
            5.7940467218083382,
            2.4080830779021367,
            3.094995770364414,
            2.2163573352209527,
            0.63147159283052812,
            0.24084943960363164,
            -4.2994650592395107,
            -6.2197450796212337,
            2.9124316839442859,
            4.6529691859927089,
            6.1712617638921881,
            3.4950795053461632,
            5.1075830390095494,
            -6.81639177460679,
            -5.9987349427136145,
            0.37180742652646326,
            -4.4915064791053529,
            -3.9095494588748276,
            -3.2626209855756514,
            -2.549185834771134,
            -4.1094260978870008,
            -6.8583685556773153,
            0.25507798650300706,
            2.8207342055676019,
            5.3918514090801262,
            2.092072683325735,
            -4.3702451165015734,
            3.2102813826189882,
            -2.30803683261572,
            0.099303090691047965,
            3.7436511392141605
          ],
          "Output": 1.2079538241440184E-17,
          "activationType": 0,
          "Delta": 2.1401698121513114E-22,
          "WeightsUpdate": [
            2.6752122651891393E-24,
            0.0,
            -2.6752122651891393E-24,
            2.6752122651891393E-24,
            2.6752122651891393E-24,
            -5.3504245303782786E-24,
            0.0,
            -2.6752122651891393E-24,
            -5.3504245303782786E-24,
            -2.6752122651891393E-24,
            0.0,
            0.0,
            0.0,
            -2.6752122651891393E-24,
            0.0,
            5.3504245303782786E-24,
            2.6752122651891393E-24,
            0.0,
            2.6752122651891393E-24,
            2.6752122651891393E-24,
            2.6752122651891393E-24,
            2.6752122651891393E-24,
            2.6752122651891393E-24,
            2.6752122651891393E-24,
            0.0,
            0.0,
            0.0,
            2.6752122651891393E-24,
            -2.6752122651891393E-24,
            2.6752122651891393E-24,
            0.0,
            0.0,
            0.0
          ],
          "BiasUpdate": 2.6752122651891393E-24,
          "PreviousWeightsUpdate": [
            1.0494015880249407E-10,
            -5.7877486200281494E-16,
            1.0492032507022166E-10,
            -2.8506641297061952E-11,
            1.9564369173883396E-14,
            -8.3346511510264511E-16,
            -1.6193350671198933E-10,
            1.6191259091710057E-10,
            -5.1537651085537661E-16,
            2.0148890016418154E-14,
            -2.8506908200470213E-11,
            -2.8506915778293673E-11,
            -2.8506336299874797E-11,
            1.3342607913529262E-10,
            -1.1449206789085363E-15,
            -9.2147220738523622E-18,
            -6.403712933328238E-18,
            1.2916374988856039E-17,
            1.6193265756052486E-10,
            8.2042955124324073E-16,
            -5.7013804429844338E-11,
            1.3342607254484769E-10,
            6.4580339731880124E-18,
            -2.0406524035937123E-14,
            1.3340593670362722E-10,
            2.8527305565097756E-11,
            -2.5135234018163128E-16,
            1.6193267329812162E-10,
            1.0494065540240756E-10,
            1.334054213259471E-10,
            -2.668529382120069E-10,
            1.3342690613165906E-10,
            -2.8506905455811069E-11
          ],
          "PreviousBiasUpdate": 1.04899353050142E-10
        },
        {
          "Bias": 3.722503727183728,
          "Weights": [
            -0.24010696344876603,
            1.8248787111233391,
            -5.9227125699721679,
            -0.21389715814761959,
            -3.0244971772712868,
            -0.48551999268183671,
            3.6169081623266051,
            3.9267038749303831,
            1.83571936940243,
            -1.9649416346858664,
            -4.2218446694988474,
            -3.9840760002276054,
            -3.9246695517269496,
            -1.2617582563848779,
            -5.118845220285567,
            -4.9736126527919371,
            -1.0094645628761336,
            -4.2461780931117143,
            -5.5439415899884636,
            1.7071730870017785,
            0.20584181790216455,
            3.5590035549423864,
            -0.29421270256926785,
            3.948050313597506,
            -8.518609838651118,
            -4.3024251557193143,
            1.3628357891595078,
            1.2034852563162417,
            -1.1769131069993377,
            1.9771060683145498,
            2.0239098666412185,
            -2.5926035102371117,
            6.0812163052518216
          ],
          "Output": 0.43758758124142239,
          "activationType": 0,
          "Delta": -3.70102152721361E-07,
          "WeightsUpdate": [
            -4.6262769090170124E-09,
            0.0,
            4.6262769090170124E-09,
            -4.6262769090170124E-09,
            -4.6262769090170124E-09,
            9.2525538180340249E-09,
            0.0,
            4.6262769090170124E-09,
            9.2525538180340249E-09,
            4.6262769090170124E-09,
            0.0,
            0.0,
            0.0,
            4.6262769090170124E-09,
            0.0,
            -9.2525538180340249E-09,
            -4.6262769090170124E-09,
            0.0,
            -4.6262769090170124E-09,
            -4.6262769090170124E-09,
            -4.6262769090170124E-09,
            -4.6262769090170124E-09,
            -4.6262769090170124E-09,
            -4.6262769090170124E-09,
            0.0,
            0.0,
            0.0,
            -4.6262769090170124E-09,
            4.6262769090170124E-09,
            -4.6262769090170124E-09,
            0.0,
            0.0,
            0.0
          ],
          "BiasUpdate": -4.6262769090170124E-09,
          "PreviousWeightsUpdate": [
            -7.45558309058255E-09,
            -2.6350752916294967E-12,
            1.8019894584381936E-09,
            -7.45821813868626E-09,
            -4.6289119830455756E-09,
            9.2499172316605731E-09,
            -2.8271801272042963E-09,
            7.4534570018664527E-09,
            9.2525538007557422E-09,
            4.6238963440823505E-09,
            -2.8295591705803583E-09,
            -2.8248011350727057E-09,
            -2.8245434979451573E-09,
            4.62627689979545E-09,
            -7.6537709834512564E-12,
            -9.2501717590955832E-09,
            -4.6238963791436E-09,
            -4.7610941614435937E-12,
            -1.7969707795942609E-09,
            -4.6188791946689568E-09,
            -1.0287778821053654E-08,
            -4.6238963718471078E-09,
            -4.6286574731918626E-09,
            -4.6238963611695668E-09,
            -2.5643997501042992E-17,
            2.8295606645980025E-09,
            -2.380547363269728E-12,
            -1.8017334021657474E-09,
            1.8017348782512731E-09,
            -4.6262769345792194E-09,
            2.3806154035183984E-12,
            5.0171241138692193E-12,
            -2.8295606827693263E-09
          ],
          "PreviousBiasUpdate": -7.4555799975365925E-09
        },
        {
          "Bias": -3.5972733547828768,
          "Weights": [
            -1.7685476974172347,
            -4.8153559100543122,
            3.2161145671588507,
            -1.4802254448064365,
            -0.89779267075477409,
            1.5903762688695369,
            -1.8517553950736281,
            -1.1126503219872856,
            -2.3815429767207532,
            -0.96595613909964184,
            -6.3505239860536227,
            -2.5220058700709056,
            1.4355094318519548,
            -0.074124504144173084,
            0.76783396413009852,
            4.2015820557940842,
            -5.0327946176645861,
            -4.9011204105814627,
            -1.2471230121140562,
            -2.5357685776808072,
            5.4647275356744629,
            2.2156824072998962,
            -3.5945503756814237,
            -2.1625878708509667,
            -1.5779051201233107,
            4.3168369244381877,
            0.48102712637081263,
            4.6884867269992636,
            -2.399939126117097,
            -2.6640075916328372,
            3.3688280218696822,
            5.1830336171876308,
            -2.9568785266968343
          ],
          "Output": 0.21589987666865484,
          "activationType": 0,
          "Delta": 1.2323419649078154E-06,
          "WeightsUpdate": [
            1.5404274561347695E-08,
            0.0,
            -1.5404274561347695E-08,
            1.5404274561347695E-08,
            1.5404274561347695E-08,
            -3.0808549122695389E-08,
            0.0,
            -1.5404274561347695E-08,
            -3.0808549122695389E-08,
            -1.5404274561347695E-08,
            0.0,
            0.0,
            0.0,
            -1.5404274561347695E-08,
            0.0,
            3.0808549122695389E-08,
            1.5404274561347695E-08,
            0.0,
            1.5404274561347695E-08,
            1.5404274561347695E-08,
            1.5404274561347695E-08,
            1.5404274561347695E-08,
            1.5404274561347695E-08,
            1.5404274561347695E-08,
            0.0,
            0.0,
            0.0,
            1.5404274561347695E-08,
            -1.5404274561347695E-08,
            1.5404274561347695E-08,
            0.0,
            0.0,
            0.0
          ],
          "BiasUpdate": 1.5404274561347695E-08,
          "PreviousWeightsUpdate": [
            1.547731799418174E-08,
            1.0082991828162492E-11,
            -1.533882219651553E-08,
            1.540183234305746E-08,
            1.5414357213022165E-08,
            -3.079846629743712E-08,
            -8.3148158839707062E-11,
            -1.5321127418358175E-08,
            -3.0808509438937126E-08,
            -1.5406726994620582E-08,
            9.2496325783451954E-15,
            4.9144708401828967E-12,
            -7.6213821171167256E-12,
            -1.5318665321704611E-08,
            1.771423766549902E-11,
            3.0811001009960963E-08,
            1.5406767375837464E-08,
            -4.9044916042989784E-12,
            1.5502450361738377E-08,
            1.5399136800140791E-08,
            1.5401841536634816E-08,
            1.5492417295913274E-08,
            1.5401822311780639E-08,
            1.5406767145197722E-08,
            8.5609422849254875E-11,
            -9.3742599696768433E-15,
            -2.4526159352591017E-12,
            1.5497465084011913E-08,
            -1.5326326511717196E-08,
            1.5489883151499315E-08,
            -1.6872685983852188E-10,
            7.805985379744374E-11,
            9.0799256729755518E-14
          ],
          "PreviousBiasUpdate": 1.547739784726306E-08
        },
        {
          "Bias": -2.7919970051925023,
          "Weights": [
            4.1693725564768753,
            -6.3702935066161865,
            -3.1791653803001876,
            -5.5302156795071422,
            2.5326799692260331,
            -2.7891093382868331,
            6.4370801384842915,
            -5.1310038391028581,
            -2.4913934821713211,
            2.2396293363104722,
            5.09100823095027,
            2.4262756832818768,
            1.1013644897522785,
            -1.8988880256580489,
            -3.5518525280538955,
            0.92029784381561164,
            -0.6209794452931352,
            1.0115896712767105,
            4.06177986083349,
            -0.82065458442462946,
            -3.9773657694887237,
            4.66778724866875,
            4.4694349085580214,
            2.2857274458438446,
            4.5322758008091268,
            0.93715162080101988,
            -2.023256861223607,
            2.7402317185455827,
            -6.8034939420905562,
            -5.2293000716883089,
            0.026777020480006249,
            -5.1114323077914374,
            -6.219252726980053
          ],
          "Output": 0.999999999999996,
          "activationType": 0,
          "Delta": -6.6840677233450386E-20,
          "WeightsUpdate": [
            -8.355084654181299E-22,
            0.0,
            8.355084654181299E-22,
            -8.355084654181299E-22,
            -8.355084654181299E-22,
            1.6710169308362598E-21,
            0.0,
            8.355084654181299E-22,
            1.6710169308362598E-21,
            8.355084654181299E-22,
            0.0,
            0.0,
            0.0,
            8.355084654181299E-22,
            0.0,
            -1.6710169308362598E-21,
            -8.355084654181299E-22,
            0.0,
            -8.355084654181299E-22,
            -8.355084654181299E-22,
            -8.355084654181299E-22,
            -8.355084654181299E-22,
            -8.355084654181299E-22,
            -8.355084654181299E-22,
            0.0,
            0.0,
            0.0,
            -8.355084654181299E-22,
            8.355084654181299E-22,
            -8.355084654181299E-22,
            0.0,
            0.0,
            0.0
          ],
          "BiasUpdate": -8.355084654181299E-22,
          "PreviousWeightsUpdate": [
            -1.3249730988722776E-14,
            1.2823638551040877E-14,
            -2.3105933407834022E-14,
            -4.1853150608289509E-15,
            1.0815667945711396E-14,
            1.1792001192553966E-14,
            -8.5050991635529657E-16,
            4.8781367218925963E-15,
            1.6030525031011611E-15,
            3.2736615394507848E-16,
            -2.3159327333422412E-15,
            -3.6071256761898956E-15,
            -1.3558082059536196E-14,
            1.063233666867233E-15,
            2.1179125079482022E-14,
            6.7411452597315666E-16,
            9.42411053758492E-18,
            -2.8013329081323956E-17,
            1.4893525044631566E-14,
            -1.1768218492876648E-14,
            -5.9657539417163148E-15,
            2.6352139078099267E-15,
            -1.4345033757377565E-17,
            8.6331050666603906E-16,
            7.2151061474374115E-16,
            2.1224991495282654E-15,
            1.9641428378296593E-15,
            1.4213878139000755E-14,
            -1.4291351580539077E-14,
            3.1123646271821245E-15,
            2.2526453689616493E-15,
            -9.9403382498134711E-15,
            -2.2019643458008835E-15
          ],
          "PreviousBiasUpdate": -1.1797371871517894E-14
        }
      ],
      "<Neurons>k__BackingField": [
        {
          "Bias": 4.0481683365933554,
          "Weights": [
            -5.8570658975989911,
            -2.9563017878395756,
            0.11366005219258149,
            -4.9457600471816638,
            4.2133286877115257,
            0.45090836952136515,
            -4.5412001568047824,
            4.3586160522628727,
            -5.5718437456569472,
            1.6867336859578907,
            -1.9021041574581521,
            -4.3939594342362644,
            4.9984202169045018,
            -5.07616452450267,
            0.86355843534264365,
            -3.6168252149819002,
            -6.3115964042269219,
            -3.0593332655293364,
            5.6504013532080792,
            -5.4550508271314229,
            1.7593222549813441,
            -2.56090366032449,
            -5.0916861219163465,
            -3.827906281168671,
            0.46200009631507494,
            4.023298621201751,
            -0.59930119812062255,
            -5.153083561510071,
            -0.62600764827299382,
            -2.7145841348827782,
            -2.3519778988426796,
            -1.0642514292296699,
            0.39642126004556161
          ],
          "Output": 5.1212698408167094E-11,
          "activationType": 0,
          "Delta": -7.57353107424418E-16,
          "WeightsUpdate": [
            -9.4669138428052245E-18,
            0.0,
            9.4669138428052245E-18,
            -9.4669138428052245E-18,
            -9.4669138428052245E-18,
            1.8933827685610449E-17,
            0.0,
            9.4669138428052245E-18,
            1.8933827685610449E-17,
            9.4669138428052245E-18,
            0.0,
            0.0,
            0.0,
            9.4669138428052245E-18,
            0.0,
            -1.8933827685610449E-17,
            -9.4669138428052245E-18,
            0.0,
            -9.4669138428052245E-18,
            -9.4669138428052245E-18,
            -9.4669138428052245E-18,
            -9.4669138428052245E-18,
            -9.4669138428052245E-18,
            -9.4669138428052245E-18,
            0.0,
            0.0,
            0.0,
            -9.4669138428052245E-18,
            9.4669138428052245E-18,
            -9.4669138428052245E-18,
            0.0,
            0.0,
            0.0
          ],
          "BiasUpdate": -9.4669138428052245E-18,
          "PreviousWeightsUpdate": [
            8.1991523352669989E-12,
            7.557625573950245E-14,
            9.1734271973937526E-12,
            -1.5464010512010244E-16,
            -9.758617804693841E-13,
            7.5592468751115748E-14,
            -9.32484793572492E-12,
            1.0376286068410988E-11,
            -1.5852625572065348E-15,
            -1.0514214442638401E-12,
            -1.4006225423740734E-16,
            -1.4089240148751068E-16,
            -7.5713958978208519E-14,
            9.32471699396812E-12,
            1.5114466671069989E-13,
            -1.3859223108502099E-17,
            -1.6114099614669998E-15,
            -4.6494270774171814E-18,
            9.3988151654707919E-12,
            -7.7182600304305623E-14,
            -2.9740872499452646E-16,
            9.3214918708597227E-12,
            -1.1798856843817348E-17,
            1.0498172057830873E-12,
            1.0376136092196694E-11,
            -1.0512857893013324E-12,
            -2.3026835669400144E-18,
            9.4020162745530618E-12,
            8.19918135725893E-12,
            1.0376126691059713E-11,
            -1.8651016890735216E-11,
            9.2459278096960337E-12,
            -3.3513335886360497E-15
          ],
          "PreviousBiasUpdate": 1.0298806514022993E-11
        },
        {
          "Bias": -5.0572407871356369,
          "Weights": [
            -2.5618304794866669,
            1.1984565491488572,
            -4.6491539065834973,
            -6.64876266659323,
            -4.34178903959263,
            2.5320135190150852,
            1.4100388559787802,
            -2.7883826780018159,
            2.8060741531893139,
            5.4918694747411134,
            4.2686786334174016,
            1.7938238610014208,
            -1.0778445722905823,
            0.24365262689745887,
            6.7471894642701313,
            5.3933549242366592,
            -4.0468159805709325,
            5.5736317974846665,
            3.593484079193404,
            1.3962553330330769,
            4.815909629883758,
            5.2010323263234257,
            -3.24476687817067,
            1.4556490922403726,
            3.6909669482973348,
            6.0545337264102477,
            -4.9365498545741691,
            -4.7599049884584046,
            1.2357678071614737,
            2.4480140012647058,
            -2.1358635587697208,
            -4.3618679568167487,
            3.3422731484359267
          ],
          "Output": 1.4034398419857535E-05,
          "activationType": 0,
          "Delta": 1.3229550870633169E-10,
          "WeightsUpdate": [
            1.6536938588291461E-12,
            0.0,
            -1.6536938588291461E-12,
            1.6536938588291461E-12,
            1.6536938588291461E-12,
            -3.3073877176582922E-12,
            0.0,
            -1.6536938588291461E-12,
            -3.3073877176582922E-12,
            -1.6536938588291461E-12,
            0.0,
            0.0,
            0.0,
            -1.6536938588291461E-12,
            0.0,
            3.3073877176582922E-12,
            1.6536938588291461E-12,
            0.0,
            1.6536938588291461E-12,
            1.6536938588291461E-12,
            1.6536938588291461E-12,
            1.6536938588291461E-12,
            1.6536938588291461E-12,
            1.6536938588291461E-12,
            0.0,
            0.0,
            0.0,
            1.6536938588291461E-12,
            -1.6536938588291461E-12,
            1.6536938588291461E-12,
            0.0,
            0.0,
            0.0
          ],
          "BiasUpdate": 1.6536938588291461E-12,
          "PreviousWeightsUpdate": [
            -4.203681776754748E-10,
            2.9323100425825591E-15,
            -4.2367613950898626E-10,
            -4.1983056559435431E-10,
            1.6601045997990953E-12,
            -3.3074381937632061E-12,
            -4.20946299783822E-10,
            4.1928898533425385E-10,
            -3.3074618926106021E-12,
            -1.6502133696201888E-12,
            -4.2148138219900395E-10,
            -4.2148726866427407E-10,
            -4.214843286577781E-10,
            -2.1918171366825555E-12,
            6.7234696876979291E-18,
            3.3103196224092192E-12,
            1.6537120947253754E-12,
            1.7698574495116563E-17,
            4.2260288559678356E-10,
            1.6537505453729704E-12,
            -8.4131494104875277E-10,
            1.1156038789594345E-12,
            1.653700668157301E-12,
            1.6501854040671756E-12,
            -5.4159378633435033E-13,
            4.2148784184271573E-10,
            -4.6245014842520354E-17,
            4.2259992405910412E-10,
            -4.2366960734251205E-10,
            1.1119982134335164E-12,
            1.0761126440443013E-12,
            -5.3804057239338448E-13,
            -4.2148427811952721E-10
          ],
          "PreviousBiasUpdate": -4.2036930509760051E-10
        },
        {
          "Bias": -3.0440828172728898,
          "Weights": [
            5.2228209150093283,
            6.2491287071352648,
            -3.36706155593597,
            5.9300734590549107,
            -6.0128933806364628,
            -1.4700557638110812,
            0.81379213294932728,
            -3.1255861133872234,
            -0.77463709885351884,
            -3.4276500851327518,
            -4.1264750138138595,
            -5.7549404354993623,
            3.2756643090445867,
            5.2241466629070121,
            -3.9169639386180948,
            0.58059873784241067,
            -2.4117296241048254,
            1.5818205995768475,
            0.014791031922631296,
            -5.7164550336924513,
            4.7606124590676266,
            -0.73679263117323712,
            -2.086299848274185,
            0.97051999767542785,
            -4.1906455550232335,
            -3.705686535643264,
            0.862693354098874,
            -0.61036751580152893,
            3.846464271031611,
            5.9195415020644191,
            2.1047643599047907,
            4.469240644871479,
            -6.3141651360221394
          ],
          "Output": 0.99983344335661151,
          "activationType": 0,
          "Delta": -3.4231356832869568E-11,
          "WeightsUpdate": [
            -4.2789196041086961E-13,
            0.0,
            4.2789196041086961E-13,
            -4.2789196041086961E-13,
            -4.2789196041086961E-13,
            8.5578392082173923E-13,
            0.0,
            4.2789196041086961E-13,
            8.5578392082173923E-13,
            4.2789196041086961E-13,
            0.0,
            0.0,
            0.0,
            4.2789196041086961E-13,
            0.0,
            -8.5578392082173923E-13,
            -4.2789196041086961E-13,
            0.0,
            -4.2789196041086961E-13,
            -4.2789196041086961E-13,
            -4.2789196041086961E-13,
            -4.2789196041086961E-13,
            -4.2789196041086961E-13,
            -4.2789196041086961E-13,
            0.0,
            0.0,
            0.0,
            -4.2789196041086961E-13,
            4.2789196041086961E-13,
            -4.2789196041086961E-13,
            0.0,
            0.0,
            0.0
          ],
          "BiasUpdate": -4.2789196041086961E-13,
          "PreviousWeightsUpdate": [
            1.7676767509401818E-11,
            -1.3697621422973679E-12,
            1.7534455563843654E-11,
            -4.1303360010085077E-13,
            -2.1751602871209E-12,
            8.5263587829786483E-13,
            -1.7097320431292535E-11,
            1.7895548206404895E-11,
            8.5100282340799218E-13,
            5.2879473567793136E-14,
            -1.3615028084406528E-12,
            1.3814013809895893E-12,
            3.2927310800289378E-15,
            1.7530381347866887E-11,
            3.4508115662787848E-15,
            -2.2272832286018655E-12,
            -4.2544383408474523E-13,
            4.6686581547775085E-17,
            1.5294758091199073E-11,
            -4.2726239347558854E-13,
            -4.0792230591576745E-13,
            1.6677045798189329E-11,
            -4.2786886036875777E-13,
            -5.2798148051760476E-14,
            1.7482468162073175E-11,
            -3.8509055520487118E-13,
            -2.3668017712470366E-15,
            1.6666281056051866E-11,
            1.5799275913045661E-11,
            1.7049795909782662E-11,
            -3.42121729460304E-11,
            1.7103142369211122E-11,
            9.97315355052852E-15
          ],
          "PreviousBiasUpdate": 1.5688993189197309E-11
        },
        {
          "Bias": -0.839350622487854,
          "Weights": [
            0.85135890445266882,
            4.3808832900379793,
            -0.23602356489251508,
            -3.1771963861369681,
            4.7799702644833175,
            1.8315316733804015,
            7.9932413813894216,
            1.9173162043873782,
            -1.1937877342671392,
            6.7301108117487516,
            -2.2408355427584015,
            2.8844153187900572,
            -0.17647638557943734,
            -5.8478633432577638,
            -5.6917980284999778,
            5.2520521124370427,
            3.305439168441612,
            0.069694270794061153,
            2.2385538806695746,
            -1.4547266928467009,
            -4.267730532954439,
            -1.7791097144308903,
            2.4714664082964375,
            3.0461758987300063,
            3.1100133610731469,
            5.100522780840981,
            3.798187236903531,
            -2.7584696649227234,
            -0.20581898802518916,
            0.930593899759053,
            -1.268214022046172,
            -2.2814310429823674,
            -4.9848734732429216
          ],
          "Output": 0.99996348934962653,
          "activationType": 0,
          "Delta": 4.6286537380035924E-10,
          "WeightsUpdate": [
            5.7858171725044907E-12,
            0.0,
            -5.7858171725044907E-12,
            5.7858171725044907E-12,
            5.7858171725044907E-12,
            -1.1571634345008981E-11,
            0.0,
            -5.7858171725044907E-12,
            -1.1571634345008981E-11,
            -5.7858171725044907E-12,
            0.0,
            0.0,
            0.0,
            -5.7858171725044907E-12,
            0.0,
            1.1571634345008981E-11,
            5.7858171725044907E-12,
            0.0,
            5.7858171725044907E-12,
            5.7858171725044907E-12,
            5.7858171725044907E-12,
            5.7858171725044907E-12,
            5.7858171725044907E-12,
            5.7858171725044907E-12,
            0.0,
            0.0,
            0.0,
            5.7858171725044907E-12,
            -5.7858171725044907E-12,
            5.7858171725044907E-12,
            0.0,
            0.0,
            0.0
          ],
          "BiasUpdate": 5.7858171725044907E-12,
          "PreviousWeightsUpdate": [
            8.0269621475584112E-12,
            -2.0006333682651832E-12,
            -1.5454961423693243E-12,
            5.7879603252585841E-12,
            3.7848770757065987E-12,
            -1.3572077763747589E-11,
            -2.3723659083841503E-13,
            -5.5484438940175063E-12,
            -1.1571723861400032E-11,
            -5.7854342555119846E-12,
            9.1359209916537248E-16,
            2.505509544868093E-15,
            2.0008472484248857E-12,
            -5.5467859801292239E-12,
            -4.0000172968650123E-12,
            1.1570840123498513E-11,
            5.78624846427888E-12,
            -1.5369969214237563E-18,
            4.0219817186451272E-12,
            7.7858223121177308E-12,
            5.7892336014434193E-12,
            6.0254446362935313E-12,
            5.785816373386209E-12,
            5.7858646850027672E-12,
            2.3951802945752263E-13,
            -1.7601745170344249E-15,
            8.4084925783030413E-17,
            4.0227846527222306E-12,
            -3.5453897563786066E-12,
            6.025335139440568E-12,
            -4.7798106051192123E-13,
            2.2391154162802881E-12,
            1.7839282713957909E-15
          ],
          "PreviousBiasUpdate": 8.02616656077402E-12
        },
        {
          "Bias": 4.0325152639006721,
          "Weights": [
            -1.7731936564323758,
            -6.0341876395263823,
            -6.76739330483933,
            -6.3271786055929065,
            4.5483867827365465,
            -6.8984157398740855,
            -4.4311689326698378,
            -1.5201425450289074,
            -3.9765812225537149,
            -0.39244777700892092,
            -3.9169990834622368,
            2.4152808485064541,
            4.2098199717315525,
            -2.2777876147629632,
            -1.621416328758172,
            4.0987095688664583,
            -5.2673690321221232,
            -3.6754018983015819,
            -4.196806038388428,
            -0.83754500423198852,
            -3.4398583920914452,
            -4.2513178396641269,
            -0.795242886887664,
            4.4760047918628576,
            -1.9964906237834128,
            3.350856922836384,
            3.683189127692009,
            3.3986950322566165,
            -5.317319816424452,
            4.1688825188404586,
            -0.37072829761399484,
            -6.09155247119398,
            2.4648521691913263
          ],
          "Output": 1.0,
          "activationType": 0,
          "Delta": 0.0,
          "WeightsUpdate": [
            0.0,
            0.0,
            0.0,
            0.0,
            0.0,
            0.0,
            0.0,
            0.0,
            0.0,
            0.0,
            0.0,
            0.0,
            0.0,
            0.0,
            0.0,
            0.0,
            0.0,
            0.0,
            0.0,
            0.0,
            0.0,
            0.0,
            0.0,
            0.0,
            0.0,
            0.0,
            0.0,
            0.0,
            0.0,
            0.0,
            0.0,
            0.0,
            0.0
          ],
          "BiasUpdate": 0.0,
          "PreviousWeightsUpdate": [
            2.4491632208103504E-11,
            -7.2307332427869368E-14,
            1.4464072672749036E-13,
            2.4419182338146349E-11,
            -7.1763689403495108E-14,
            -7.223145577546295E-14,
            -2.4419385332326253E-11,
            2.4417537839387502E-11,
            -7.8602118158900754E-16,
            2.4419206643298523E-11,
            -4.5469779786462421E-16,
            -4.883765908186272E-11,
            -2.434640636962148E-11,
            3.3562853267337588E-17,
            2.4274354556781319E-11,
            -2.4419267580511468E-11,
            -2.4418966093888918E-11,
            4.8837634414142056E-11,
            -2.4491158386280877E-11,
            -4.8765004700965719E-11,
            2.4418814575629028E-11,
            -2.4418677176171341E-11,
            2.4418567414580614E-11,
            -2.4419629147691344E-11,
            -6.59072040229545E-16,
            5.7748234809015556E-16,
            2.4418537814461855E-11,
            2.4346671419538891E-11,
            -2.434566576696465E-11,
            -1.200702587004839E-15,
            -2.4418961786067092E-11,
            -2.434664218846367E-11,
            -4.1797446397675911E-18
          ],
          "PreviousBiasUpdate": 2.4490274186052039E-11
        },
        {
          "Bias": 4.1443891851026411,
          "Weights": [
            3.276683988516206,
            -6.9913070196883185,
            5.0797069435004207,
            -1.0138829236121978,
            1.7073564519800055,
            1.1428011792546948,
            -4.2810576037746539,
            1.6770289914706873,
            -4.45793600443859,
            -2.1088666786308452,
            1.114044430846433,
            6.2458471598396041,
            5.6683038300809079,
            -0.30720564341195467,
            3.7378400636871825,
            0.91522186910862413,
            -1.5609889707257594,
            -3.1948660270677283,
            -3.325732719259574,
            1.6270054562023919,
            -2.2955143416623875,
            -3.8176996854289862,
            3.972267841314451,
            -5.1097821320297525,
            3.4869178007135027,
            -4.74018837590805,
            -2.5673795896386182,
            -3.2318956571719766,
            -1.3269591454890683,
            -1.3700552816710998,
            6.6575534903076159,
            -6.7436333436877014,
            -3.4290275629048179
          ],
          "Output": 0.17496492917182829,
          "activationType": 0,
          "Delta": 1.2775753487354664E-06,
          "WeightsUpdate": [
            1.596969185919333E-08,
            0.0,
            -1.596969185919333E-08,
            1.596969185919333E-08,
            1.596969185919333E-08,
            -3.1939383718386661E-08,
            0.0,
            -1.596969185919333E-08,
            -3.1939383718386661E-08,
            -1.596969185919333E-08,
            0.0,
            0.0,
            0.0,
            -1.596969185919333E-08,
            0.0,
            3.1939383718386661E-08,
            1.596969185919333E-08,
            0.0,
            1.596969185919333E-08,
            1.596969185919333E-08,
            1.596969185919333E-08,
            1.596969185919333E-08,
            1.596969185919333E-08,
            1.596969185919333E-08,
            0.0,
            0.0,
            0.0,
            1.596969185919333E-08,
            -1.596969185919333E-08,
            1.596969185919333E-08,
            0.0,
            0.0,
            0.0
          ],
          "BiasUpdate": 1.596969185919333E-08,
          "PreviousWeightsUpdate": [
            1.5960579812157297E-08,
            -1.5177868137213295E-17,
            -1.5969658697756046E-08,
            1.5960562348442649E-08,
            1.5969676114958236E-08,
            -3.19393878353068E-08,
            9.09219692015662E-12,
            -1.5978780687688553E-08,
            -3.1939391955055709E-08,
            -1.5978841203008826E-08,
            -2.8627417602424657E-17,
            1.8267248172856223E-11,
            9.13360810962178E-12,
            -1.5969658683812369E-08,
            -9.1336164464957143E-12,
            3.1948517320243873E-08,
            1.5978825478646113E-08,
            -1.8267238907306717E-11,
            1.5978862764445663E-08,
            1.5987963217139373E-08,
            1.5960558217972396E-08,
            1.5978858653954425E-08,
            1.59605582397327E-08,
            1.5978837083488161E-08,
            4.88995608643991E-14,
            -1.1594083936939755E-14,
            -9.1377388142052166E-12,
            1.5960595541017102E-08,
            -1.5960528459414969E-08,
            1.5969732519887817E-08,
            9.0549153342863691E-12,
            9.1709114958733431E-12,
            -1.0736295155669532E-17
          ],
          "PreviousBiasUpdate": 1.5960602991025629E-08
        },
        {
          "Bias": -5.9239160352331055,
          "Weights": [
            2.1347576682349878,
            -1.7274631064126715,
            -4.7245095351718085,
            1.2488059760641372,
            4.4387998990656241,
            4.2531348814866794,
            -2.0856462620312182,
            -1.8764751363465537,
            4.0015893322517009,
            -3.3796281276888771,
            -1.5863096543122539,
            -1.2318925937511833,
            5.5744883955532565,
            -0.65850485402819,
            -4.0467150917211354,
            0.66194512588094345,
            -1.6093846358922874,
            -4.1576372780700481,
            -7.1211009550665683,
            -4.2988098716029608,
            1.914914984821297,
            -0.80255532557240861,
            -3.1339746831786113,
            2.7045933588326605,
            3.6529495281865674,
            -2.8563205755991796,
            -3.434394476276621,
            5.7365078145580091,
            -2.9162156051669097,
            2.783307606607941,
            -3.2426556102410493,
            1.0765572943832726,
            6.3633181433331352
          ],
          "Output": 0.027698730783698441,
          "activationType": 0,
          "Delta": -7.99665204830287E-09,
          "WeightsUpdate": [
            -9.9958150603785872E-11,
            0.0,
            9.9958150603785872E-11,
            -9.9958150603785872E-11,
            -9.9958150603785872E-11,
            1.9991630120757174E-10,
            0.0,
            9.9958150603785872E-11,
            1.9991630120757174E-10,
            9.9958150603785872E-11,
            0.0,
            0.0,
            0.0,
            9.9958150603785872E-11,
            0.0,
            -1.9991630120757174E-10,
            -9.9958150603785872E-11,
            0.0,
            -9.9958150603785872E-11,
            -9.9958150603785872E-11,
            -9.9958150603785872E-11,
            -9.9958150603785872E-11,
            -9.9958150603785872E-11,
            -9.9958150603785872E-11,
            0.0,
            0.0,
            0.0,
            -9.9958150603785872E-11,
            9.9958150603785872E-11,
            -9.9958150603785872E-11,
            0.0,
            0.0,
            0.0
          ],
          "BiasUpdate": -9.9958150603785872E-11,
          "PreviousWeightsUpdate": [
            -7.0664358597388678E-10,
            2.3748585812178411E-15,
            -3.7313331451420232E-10,
            -2.5906479438790908E-10,
            -1.0013386823352985E-10,
            1.9991868513635083E-10,
            5.5511308060503209E-10,
            -4.5497680657456937E-10,
            1.99921358519127E-10,
            -3.3633145552908838E-11,
            -2.5693428829899612E-11,
            2.4113297578636818E-10,
            1.077173992515868E-10,
            -3.4743513640098234E-10,
            -1.334084556183828E-10,
            -6.6503096422546585E-11,
            3.3460089758650094E-11,
            -2.6682640697607675E-10,
            -3.882374023303814E-10,
            1.6687090896769916E-10,
            -2.8475821434529892E-10,
            -4.1392816080295684E-10,
            -2.3337135397519708E-10,
            3.3638192596189822E-11,
            -4.4721519410317474E-10,
            2.5515327289497585E-11,
            -1.3341319341828356E-10,
            -6.5507388400219977E-10,
            -2.3990089576762808E-10,
            -5.4717332436868708E-10,
            1.0282048443124082E-09,
            -3.1397239402860647E-10,
            -2.5683356710368817E-11
          ],
          "PreviousBiasUpdate": -7.0627730422564733E-10
        },
        {
          "Bias": 5.004308658198525,
          "Weights": [
            2.4634296200560444,
            -2.9622420109469063,
            -2.074833125394882,
            2.1832676327233691,
            -1.3690718261946346,
            -2.7302093218391112,
            -1.5986925690029976,
            3.8269346742989327,
            -4.5480673648831855,
            -0.96935831959491825,
            1.4984032521531665,
            -1.6795062808020658,
            -3.6750123774210817,
            1.9398392647595439,
            -1.8156209797106868,
            3.6196272236181248,
            6.5251675540098075,
            1.9124146999139919,
            -5.0842404871198434,
            1.7333158057675131,
            -2.5071521377773038,
            -5.9158021304532742,
            -5.8787783341234574,
            -3.5801287693389914,
            2.9520166208190965,
            -1.5728152497258447,
            1.788204576695563,
            -4.0476479958069476,
            -6.1538441924752831,
            -3.4711927854668443,
            -7.8784199404824431,
            4.2740998665617633,
            0.39432023466185229
          ],
          "Output": 0.99998740936047448,
          "activationType": 0,
          "Delta": 2.0158407221463275E-11,
          "WeightsUpdate": [
            2.5198009026829094E-13,
            0.0,
            -2.5198009026829094E-13,
            2.5198009026829094E-13,
            2.5198009026829094E-13,
            -5.0396018053658187E-13,
            0.0,
            -2.5198009026829094E-13,
            -5.0396018053658187E-13,
            -2.5198009026829094E-13,
            0.0,
            0.0,
            0.0,
            -2.5198009026829094E-13,
            0.0,
            5.0396018053658187E-13,
            2.5198009026829094E-13,
            0.0,
            2.5198009026829094E-13,
            2.5198009026829094E-13,
            2.5198009026829094E-13,
            2.5198009026829094E-13,
            2.5198009026829094E-13,
            2.5198009026829094E-13,
            0.0,
            0.0,
            0.0,
            2.5198009026829094E-13,
            -2.5198009026829094E-13,
            2.5198009026829094E-13,
            0.0,
            0.0,
            0.0
          ],
          "BiasUpdate": 2.5198009026829094E-13,
          "PreviousWeightsUpdate": [
            -3.0402794381216433E-10,
            -5.6485337490102474E-15,
            -3.04686875690763E-10,
            -3.0422272278387343E-10,
            2.4632386652158605E-13,
            -5.0396008171451589E-13,
            -3.045145109362025E-10,
            3.0426253823517158E-10,
            -6.5329025286991452E-13,
            -2.5198747922826439E-13,
            -3.0448035179920812E-10,
            -3.0446905455244557E-10,
            -3.0447470356207033E-10,
            -2.1217233192459732E-13,
            1.9281238340952194E-19,
            4.9831183883807508E-13,
            1.0264972036310712E-13,
            3.0199617945017525E-19,
            3.0461151240445217E-10,
            1.0264961744911258E-13,
            -6.0869742624236767E-10,
            -6.8722969698172066E-15,
            2.5198009088398377E-13,
            1.0265740726106786E-13,
            3.981485332164581E-14,
            3.0447469577292021E-10,
            4.0679886338474877E-21,
            3.0491582118804969E-10,
            -3.0454320154203873E-10,
            2.9179524435095743E-13,
            -2.28945304629285E-13,
            -2.5885248540312509E-13,
            -3.047733630211012E-10
          ],
          "PreviousBiasUpdate": -3.0433788641740453E-10
        },
        {
          "Bias": 1.4316494102174422,
          "Weights": [
            2.3292465067086967,
            1.9024232546772628,
            -3.230836855445725,
            0.83005162825805578,
            3.9960966927810539,
            4.0931564049960834,
            3.1386852622245103,
            4.33914650087689,
            -2.5631976159305823,
            6.3513796419570934,
            7.6331145236140472,
            0.21085396169223944,
            -4.6623415152336145,
            -1.6581153438909886,
            -0.3104516700823306,
            -1.6641614049011246,
            5.8582416444439582,
            0.16475932203489302,
            -3.3672922058303771,
            4.9289331674739492,
            3.2315523336634162,
            2.6463248313825605,
            -1.1824322600965751,
            5.4091843027002184,
            -4.9046901289351732,
            -5.2572495181207488,
            1.9808387527766009,
            3.5737129054659937,
            3.0276019993131227,
            -4.6276624552925236,
            -1.8590679295927008,
            2.7563695011497265,
            5.2585642479441024
          ],
          "Output": 0.99994673565696712,
          "activationType": 0,
          "Delta": 2.2501044881745062E-10,
          "WeightsUpdate": [
            2.8126306102181329E-12,
            0.0,
            -2.8126306102181329E-12,
            2.8126306102181329E-12,
            2.8126306102181329E-12,
            -5.6252612204362657E-12,
            0.0,
            -2.8126306102181329E-12,
            -5.6252612204362657E-12,
            -2.8126306102181329E-12,
            0.0,
            0.0,
            0.0,
            -2.8126306102181329E-12,
            0.0,
            5.6252612204362657E-12,
            2.8126306102181329E-12,
            0.0,
            2.8126306102181329E-12,
            2.8126306102181329E-12,
            2.8126306102181329E-12,
            2.8126306102181329E-12,
            2.8126306102181329E-12,
            2.8126306102181329E-12,
            0.0,
            0.0,
            0.0,
            2.8126306102181329E-12,
            -2.8126306102181329E-12,
            2.8126306102181329E-12,
            0.0,
            0.0,
            0.0
          ],
          "BiasUpdate": 2.8126306102181329E-12,
          "PreviousWeightsUpdate": [
            -4.2967670059912725E-11,
            -1.7190497930006903E-13,
            -5.0858117355326856E-11,
            5.2488382527869713E-12,
            2.641560346378235E-12,
            -5.7965114912579825E-12,
            4.59536717437626E-11,
            -4.8765246277288162E-11,
            -5.6240004836152651E-12,
            -3.7495819015995477E-13,
            -2.3998125188904481E-17,
            -4.8736508464644516E-12,
            -2.2649565604615221E-12,
            -5.1201879008117421E-11,
            2.0930760118455349E-12,
            3.1883995387216546E-12,
            3.757931683310031E-13,
            4.8736756627344364E-12,
            -4.818599099906419E-11,
            -1.8897942866056281E-12,
            5.2494683812484679E-12,
            -4.8013455254729664E-11,
            5.249468114090989E-12,
            3.7558837225538634E-13,
            -4.8390083374352234E-11,
            2.0434618747147691E-16,
            2.437467722452556E-12,
            -4.3312291157309953E-11,
            -5.3467915608467812E-11,
            -4.5576192223220541E-11,
            9.4343550063193136E-11,
            -5.0654835496900041E-11,
            2.8943412609862697E-19
          ],
          "PreviousBiasUpdate": -4.2968127958546212E-11
        },
        {
          "Bias": 1.4251450232739451,
          "Weights": [
            -5.3040267602815625,
            1.7594878794453617,
            2.1009292397576469,
            0.028587030031679027,
            3.3878252427253566,
            -2.8382467509601375,
            -3.3661664741529,
            -2.9134871748777971,
            1.1598654280641929,
            -1.945388841913684,
            -1.5890696574060157,
            -2.4994363799460193,
            -5.1015386167719594,
            -2.0572926426303617,
            5.4769595549600583,
            0.52488943163670443,
            -4.6502403904285767,
            -1.7387936359794858,
            -1.9054942616134929,
            0.9314796270223461,
            -5.8547446814298238,
            -4.4567775221010351,
            -3.0258471277017351,
            -4.6576651685047938,
            -0.29708692982487556,
            1.2077287535044887,
            -6.5496754118423528,
            3.9423085880013313,
            -6.7713519487973386,
            -3.9427673069054237,
            -2.9186715762237712,
            -4.20884907255032,
            0.11996820670139917
          ],
          "Output": 0.00030677632677751404,
          "activationType": 0,
          "Delta": -1.5606432945456702E-09,
          "WeightsUpdate": [
            -1.950804118182088E-11,
            0.0,
            1.950804118182088E-11,
            -1.950804118182088E-11,
            -1.950804118182088E-11,
            3.9016082363641759E-11,
            0.0,
            1.950804118182088E-11,
            3.9016082363641759E-11,
            1.950804118182088E-11,
            0.0,
            0.0,
            0.0,
            1.950804118182088E-11,
            0.0,
            -3.9016082363641759E-11,
            -1.950804118182088E-11,
            0.0,
            -1.950804118182088E-11,
            -1.950804118182088E-11,
            -1.950804118182088E-11,
            -1.950804118182088E-11,
            -1.950804118182088E-11,
            -1.950804118182088E-11,
            0.0,
            0.0,
            0.0,
            -1.950804118182088E-11,
            1.950804118182088E-11,
            -1.950804118182088E-11,
            0.0,
            0.0,
            0.0
          ],
          "BiasUpdate": -1.950804118182088E-11,
          "PreviousWeightsUpdate": [
            -1.8696108614769475E-11,
            6.6828556777999451E-14,
            1.9509078090388875E-11,
            -1.9507679227441614E-11,
            -1.8563489305947923E-11,
            3.9015720859702643E-11,
            -1.3984158291612469E-15,
            1.8631715888246309E-11,
            3.9016082361928164E-11,
            2.0386126451568368E-11,
            6.6828508246970723E-14,
            -6.6828593961636866E-14,
            -7.234534298001718E-16,
            1.9509439593535666E-11,
            3.1558425803494308E-20,
            -3.8949253469270341E-11,
            -1.9507680177830168E-11,
            5.3315788456253986E-19,
            -1.944017579916113E-11,
            -1.9508041712604633E-11,
            -1.9508041152036662E-11,
            -1.9506281328218027E-11,
            -1.9508041149142547E-11,
            -2.0385764976781206E-11,
            -8.7596423595178149E-13,
            8.7772376163490082E-13,
            3.0095014281688789E-20,
            -1.9507004211881133E-11,
            2.0454353334218536E-11,
            -2.038400498075628E-11,
            -2.796439364867646E-15,
            1.3983270453974572E-15,
            3.394496159722352E-19
          ],
          "PreviousBiasUpdate": -2.0317176027482706E-11
        },
        {
          "Bias": 0.19240315149143855,
          "Weights": [
            -2.451563981040207,
            -0.88471907095014257,
            2.7515744321266191,
            0.62266924840400029,
            2.4506192895888343,
            6.8100743067500247,
            3.8932140374398774,
            -4.956335355532473,
            6.386717134459758,
            -4.120200812276412,
            2.7072121000696669,
            2.9312349885947171,
            3.7998925413117668,
            -2.64590250908343,
            -6.0636280588793676,
            -5.0298258331596255,
            -3.3596448554302993,
            4.0305014496050795,
            -4.68954067884182,
            -1.5165260932920033,
            -0.67345137194756755,
            7.6676300387489347,
            -0.22960480327156682,
            2.05128221569233,
            4.936043506685003,
            -6.9309259483379835,
            -2.5995440182715619,
            -3.4259376594370456,
            -3.2768688002324859,
            1.6056134614039903,
            2.7973164475828347,
            -4.4971897554463975,
            2.5441378885025081
          ],
          "Output": 5.3093402150721987E-12,
          "activationType": 0,
          "Delta": -9.978919426777826E-20,
          "WeightsUpdate": [
            -1.2473649283472283E-21,
            0.0,
            1.2473649283472283E-21,
            -1.2473649283472283E-21,
            -1.2473649283472283E-21,
            2.4947298566944566E-21,
            0.0,
            1.2473649283472283E-21,
            2.4947298566944566E-21,
            1.2473649283472283E-21,
            0.0,
            0.0,
            0.0,
            1.2473649283472283E-21,
            0.0,
            -2.4947298566944566E-21,
            -1.2473649283472283E-21,
            0.0,
            -1.2473649283472283E-21,
            -1.2473649283472283E-21,
            -1.2473649283472283E-21,
            -1.2473649283472283E-21,
            -1.2473649283472283E-21,
            -1.2473649283472283E-21,
            0.0,
            0.0,
            0.0,
            -1.2473649283472283E-21,
            1.2473649283472283E-21,
            -1.2473649283472283E-21,
            0.0,
            0.0,
            0.0
          ],
          "BiasUpdate": -1.2473649283472283E-21,
          "PreviousWeightsUpdate": [
            3.0717541965544204E-14,
            -1.2653701676281208E-14,
            4.3575299054389924E-14,
            -1.8261905118264645E-14,
            -1.2480027171269906E-14,
            5.595940716104073E-15,
            -2.7132487760849072E-17,
            -3.0845774846779541E-17,
            5.7804706196925488E-17,
            -1.8261560704883632E-14,
            1.3401621052107342E-16,
            -1.4663701074652922E-16,
            4.9201996222718381E-14,
            -3.7052867575583624E-17,
            -2.5337916050762548E-14,
            1.2753545219749798E-16,
            -1.8274346612975806E-14,
            1.2381850125026936E-17,
            5.6287863508536015E-15,
            1.2659581034790996E-14,
            6.4589410285874336E-18,
            -1.8427022695349065E-14,
            6.309862145450038E-18,
            -6.4152308131313029E-18,
            -1.8305192088054883E-14,
            1.03681784644524E-19,
            -5.1415754465029447E-17,
            5.5072438885904941E-15,
            -5.5629854753356447E-15,
            -1.8305136098751986E-14,
            9.9031484978750471E-18,
            1.2570945270789504E-14,
            -5.7892887373626837E-17
          ],
          "PreviousBiasUpdate": -5.4349851319280546E-15
        },
        {
          "Bias": -3.4042390465547814,
          "Weights": [
            -6.7702666481930862,
            -3.7063932783024893,
            5.7940467218083382,
            2.4080830779021367,
            3.094995770364414,
            2.2163573352209527,
            0.63147159283052812,
            0.24084943960363164,
            -4.2994650592395107,
            -6.2197450796212337,
            2.9124316839442859,
            4.6529691859927089,
            6.1712617638921881,
            3.4950795053461632,
            5.1075830390095494,
            -6.81639177460679,
            -5.9987349427136145,
            0.37180742652646326,
            -4.4915064791053529,
            -3.9095494588748276,
            -3.2626209855756514,
            -2.549185834771134,
            -4.1094260978870008,
            -6.8583685556773153,
            0.25507798650300706,
            2.8207342055676019,
            5.3918514090801262,
            2.092072683325735,
            -4.3702451165015734,
            3.2102813826189882,
            -2.30803683261572,
            0.099303090691047965,
            3.7436511392141605
          ],
          "Output": 1.2079538241440184E-17,
          "activationType": 0,
          "Delta": 2.1401698121513114E-22,
          "WeightsUpdate": [
            2.6752122651891393E-24,
            0.0,
            -2.6752122651891393E-24,
            2.6752122651891393E-24,
            2.6752122651891393E-24,
            -5.3504245303782786E-24,
            0.0,
            -2.6752122651891393E-24,
            -5.3504245303782786E-24,
            -2.6752122651891393E-24,
            0.0,
            0.0,
            0.0,
            -2.6752122651891393E-24,
            0.0,
            5.3504245303782786E-24,
            2.6752122651891393E-24,
            0.0,
            2.6752122651891393E-24,
            2.6752122651891393E-24,
            2.6752122651891393E-24,
            2.6752122651891393E-24,
            2.6752122651891393E-24,
            2.6752122651891393E-24,
            0.0,
            0.0,
            0.0,
            2.6752122651891393E-24,
            -2.6752122651891393E-24,
            2.6752122651891393E-24,
            0.0,
            0.0,
            0.0
          ],
          "BiasUpdate": 2.6752122651891393E-24,
          "PreviousWeightsUpdate": [
            1.0494015880249407E-10,
            -5.7877486200281494E-16,
            1.0492032507022166E-10,
            -2.8506641297061952E-11,
            1.9564369173883396E-14,
            -8.3346511510264511E-16,
            -1.6193350671198933E-10,
            1.6191259091710057E-10,
            -5.1537651085537661E-16,
            2.0148890016418154E-14,
            -2.8506908200470213E-11,
            -2.8506915778293673E-11,
            -2.8506336299874797E-11,
            1.3342607913529262E-10,
            -1.1449206789085363E-15,
            -9.2147220738523622E-18,
            -6.403712933328238E-18,
            1.2916374988856039E-17,
            1.6193265756052486E-10,
            8.2042955124324073E-16,
            -5.7013804429844338E-11,
            1.3342607254484769E-10,
            6.4580339731880124E-18,
            -2.0406524035937123E-14,
            1.3340593670362722E-10,
            2.8527305565097756E-11,
            -2.5135234018163128E-16,
            1.6193267329812162E-10,
            1.0494065540240756E-10,
            1.334054213259471E-10,
            -2.668529382120069E-10,
            1.3342690613165906E-10,
            -2.8506905455811069E-11
          ],
          "PreviousBiasUpdate": 1.04899353050142E-10
        },
        {
          "Bias": 3.722503727183728,
          "Weights": [
            -0.24010696344876603,
            1.8248787111233391,
            -5.9227125699721679,
            -0.21389715814761959,
            -3.0244971772712868,
            -0.48551999268183671,
            3.6169081623266051,
            3.9267038749303831,
            1.83571936940243,
            -1.9649416346858664,
            -4.2218446694988474,
            -3.9840760002276054,
            -3.9246695517269496,
            -1.2617582563848779,
            -5.118845220285567,
            -4.9736126527919371,
            -1.0094645628761336,
            -4.2461780931117143,
            -5.5439415899884636,
            1.7071730870017785,
            0.20584181790216455,
            3.5590035549423864,
            -0.29421270256926785,
            3.948050313597506,
            -8.518609838651118,
            -4.3024251557193143,
            1.3628357891595078,
            1.2034852563162417,
            -1.1769131069993377,
            1.9771060683145498,
            2.0239098666412185,
            -2.5926035102371117,
            6.0812163052518216
          ],
          "Output": 0.43758758124142239,
          "activationType": 0,
          "Delta": -3.70102152721361E-07,
          "WeightsUpdate": [
            -4.6262769090170124E-09,
            0.0,
            4.6262769090170124E-09,
            -4.6262769090170124E-09,
            -4.6262769090170124E-09,
            9.2525538180340249E-09,
            0.0,
            4.6262769090170124E-09,
            9.2525538180340249E-09,
            4.6262769090170124E-09,
            0.0,
            0.0,
            0.0,
            4.6262769090170124E-09,
            0.0,
            -9.2525538180340249E-09,
            -4.6262769090170124E-09,
            0.0,
            -4.6262769090170124E-09,
            -4.6262769090170124E-09,
            -4.6262769090170124E-09,
            -4.6262769090170124E-09,
            -4.6262769090170124E-09,
            -4.6262769090170124E-09,
            0.0,
            0.0,
            0.0,
            -4.6262769090170124E-09,
            4.6262769090170124E-09,
            -4.6262769090170124E-09,
            0.0,
            0.0,
            0.0
          ],
          "BiasUpdate": -4.6262769090170124E-09,
          "PreviousWeightsUpdate": [
            -7.45558309058255E-09,
            -2.6350752916294967E-12,
            1.8019894584381936E-09,
            -7.45821813868626E-09,
            -4.6289119830455756E-09,
            9.2499172316605731E-09,
            -2.8271801272042963E-09,
            7.4534570018664527E-09,
            9.2525538007557422E-09,
            4.6238963440823505E-09,
            -2.8295591705803583E-09,
            -2.8248011350727057E-09,
            -2.8245434979451573E-09,
            4.62627689979545E-09,
            -7.6537709834512564E-12,
            -9.2501717590955832E-09,
            -4.6238963791436E-09,
            -4.7610941614435937E-12,
